<?xml version="1.0"?>
<opencv_storage>
<opencv_ml_svm>
  <format>3</format>
  <svmType>C_SVC</svmType>
  <kernel>
    <type>LINEAR</type></kernel>
  <C>10.</C>
  <term_criteria><epsilon>5.0000000000000001e-04</epsilon></term_criteria>
  <var_count>324</var_count>
  <class_count>7</class_count>
  <class_labels type_id="opencv-matrix">
    <rows>7</rows>
    <cols>1</cols>
    <dt>i</dt>
    <data>
      0 1 2 3 4 5 8</data></class_labels>
  <sv_total>21</sv_total>
  <support_vectors>
    <_>
      7.35246181e-01 -6.34414554e-01 3.21064770e-01 1.01961994e+00
      -8.21749985e-01 -1.24090123e+00 -9.06665251e-02 -9.71691430e-01
      -1.62535346e+00 -3.34528983e-01 -5.49277232e-04 -3.92710954e-01
      -6.06878921e-02 1.58556297e-01 -1.74667382e+00 -8.34180772e-01
      1.51672888e+00 5.45286000e-01 -1.16711926e+00 -6.92852974e-01
      -4.24041986e+00 -2.60466743e+00 4.50980484e-01 1.58511364e+00
      7.95740366e-01 1.60843742e+00 -7.17366636e-01 -5.53820550e-01
      9.87740457e-01 -1.64114261e+00 -6.39407337e-01 -7.92689502e-01
      -9.59096491e-01 -9.46294665e-01 -8.04387808e-01 -1.77827847e+00
      7.26225749e-02 2.66785473e-01 1.21615067e-01 8.65482911e-02
      -5.49634337e-01 -9.47132826e-01 4.09685224e-01 2.40639359e-01
      -1.06875336e+00 -9.47103679e-01 -3.09225142e-01 1.64900318e-01
      -8.43780875e-01 1.81584382e+00 3.15649748e-01 1.05328596e+00
      1.51538417e-01 -1.58977914e+00 6.50713518e-02 -1.46474242e+00
      1.32607073e-01 -5.05264819e-01 -1.97142839e+00 -1.88793913e-01
      -3.23770434e-01 3.73990983e-01 -2.50383347e-01 -7.11102068e-01
      -8.97715509e-01 -3.69457603e-02 -1.56965959e+00 6.37104958e-02
      -4.55970943e-01 -2.36832812e-01 -7.46140420e-01 -1.42057705e+00
      -4.06914711e-01 -8.40366125e-01 7.44241118e-01 -8.27153444e-01
      7.41160393e-01 -7.63829291e-01 -4.67888266e-01 4.19097185e-01
      7.93536961e-01 -1.25170839e+00 1.01989731e-01 -1.32290518e+00
      -1.08202577e-01 -9.68316972e-01 6.96514189e-01 -1.56191146e+00
      6.49919629e-01 3.62034380e-01 3.39394855e+00 -1.86910224e+00
      -8.08976233e-01 7.64023960e-01 7.57228374e-01 -1.56393039e+00
      -7.33415842e-01 -2.35264957e-01 -5.13259768e-01 2.32502460e-01
      6.73896968e-01 9.70097542e-01 -1.48105919e-01 -7.85929143e-01
      6.75654292e-01 -7.16624260e-01 -2.55520761e-01 3.02666565e-03
      3.22001958e+00 3.91530514e-01 -1.64402330e+00 -2.58995199e+00
      -6.37890458e-01 7.39980757e-01 -1.19647376e-01 1.39684951e+00
      4.25130963e-01 -9.21132147e-01 1.21389961e+00 -4.30953294e-01
      -5.62742770e-01 -3.47028911e-01 -4.98230577e-01 -1.20331240e+00
      -1.77897120e+00 -1.33439672e+00 4.74931329e-01 2.73710680e+00
      1.14441955e+00 1.18243289e+00 8.08438420e-01 8.49851727e-01
      -3.93773973e-01 -9.97595668e-01 -1.10655114e-01 -1.12383795e+00
      -2.27045804e-01 1.24049211e+00 1.59646428e+00 3.51132989e-01
      6.65359557e-01 1.46275926e+00 1.94145715e+00 -7.60613978e-01
      4.64939736e-02 -9.25470591e-01 9.45034742e-01 9.35944140e-01
      -5.38896918e-02 7.02761948e-01 2.91049555e-02 1.27890515e+00
      -6.26084805e-01 3.74838918e-01 7.90101409e-01 1.66637397e+00
      6.04746342e-02 -6.85842812e-01 3.70318323e-01 1.91931859e-01
      -6.65473938e-03 -2.47254688e-02 -1.45360482e+00 -4.85720366e-01
      -3.94389629e-01 -8.58295709e-03 -7.50999331e-01 -4.53609943e-01
      -1.35634214e-01 -3.40536654e-01 5.44285297e-01 -9.63962972e-01
      1.70241559e+00 4.89339054e-01 -5.98149478e-01 -1.14420569e+00
      1.35955855e-01 -5.52831411e-01 5.87260067e-01 -1.07724214e+00
      -5.27117670e-01 1.29568338e+00 1.45616364e+00 2.14821100e+00
      5.64911306e-01 7.98289716e-01 1.97374105e+00 1.54856062e+00
      -3.11788559e-01 -5.85996091e-01 1.94078863e+00 1.00438404e+00
      1.12843990e-01 -2.66892791e-01 -5.68246663e-01 5.66896856e-01
      4.50315475e-01 -1.61134362e+00 -1.47479141e+00 -6.54558659e-01
      -4.54717010e-01 5.55331767e-01 7.21381605e-01 1.09359169e+00
      1.19758248e+00 -5.07217526e-01 -1.27621651e+00 -1.09109783e+00
      -1.45218456e+00 -1.95014286e+00 -7.18978763e-01 3.51011008e-01
      -1.03824818e+00 1.82789832e-01 -8.36962342e-01 -1.21862555e+00
      -1.90101773e-01 1.04056835e+00 -6.59081161e-01 9.00278032e-01
      1.90997863e+00 1.43553782e+00 7.28842020e-01 6.18286468e-02
      -2.34007150e-01 1.86511803e+00 2.03774154e-01 -5.78358948e-01
      3.02856028e-01 -1.12002432e-01 -5.12526572e-01 4.26570565e-01
      -6.37394309e-01 6.05384052e-01 3.75733785e-02 -7.66039118e-02
      -8.24417353e-01 -1.60909474e+00 1.66955435e+00 1.39424908e+00
      1.44056118e+00 1.12009668e+00 -2.90568024e-01 -6.11594677e-01
      -6.81738079e-01 -5.73162496e-01 -5.15982449e-01 2.49665529e-01
      -1.82521284e-01 2.70034403e-01 -9.91646290e-01 -1.50153950e-01
      1.59144998e+00 1.23351312e+00 4.50122744e-01 4.73071605e-01
      -3.75239372e-01 -7.05288112e-01 -2.59983152e-01 3.81928504e-01
      1.65541303e+00 -9.69028592e-01 2.01153326e+00 -2.21065074e-01
      9.74286571e-02 -2.17392400e-01 -3.66319060e-01 -1.15353048e-01
      9.76729512e-01 -1.47431386e+00 -1.23048258e+00 -2.31510425e+00
      2.35570192e+00 -5.83171956e-02 -5.23042008e-02 -1.04979932e-01
      -5.22505999e-01 3.31600994e-01 1.02811146e+00 -4.82636213e-01
      -2.56658137e-01 2.62149453e-01 7.33842969e-01 8.16552818e-01
      5.67763686e-01 -7.95551181e-01 -2.88403600e-01 -8.80628347e-01
      -2.28910863e-01 -3.94940019e-01 -7.09442019e-01 -5.64379692e-01
      -4.05018389e-01 2.99694836e-01 1.63019732e-01 1.06254077e+00
      9.37558651e-01 3.11124772e-01 -2.71528184e-01 1.44454980e+00
      2.77859867e-01 9.91543084e-02 -2.07050025e-01 6.48180425e-01
      -6.18456125e-01 1.20482230e+00 -8.27172518e-01 1.13848245e+00
      -5.79924762e-01 -7.58291543e-01 -1.28289163e+00 -2.35937285e+00
      -7.37000644e-01 -8.37225735e-01 -8.64787638e-01 -9.62354764e-02
      2.94720858e-01 -5.24692416e-01 -4.00188029e-01 8.94819975e-01
      9.82264042e-01 -2.06828737e+00 -1.51155853e+00 1.49979740e-01</_>
    <_>
      -2.86441773e-01 3.53144079e-01 -3.30554038e-01 -1.46392778e-01
      -2.80688763e-01 5.00033677e-01 -7.04013705e-02 -6.39122352e-02
      -5.27845085e-01 6.04736745e-01 1.51763350e-01 -5.21600664e-01
      -2.42944464e-01 3.57904762e-01 2.58767039e-01 -4.27668124e-01
      -1.45964563e-01 1.20547108e-01 -2.15413287e-01 1.39208078e-01
      -9.99904156e-01 -4.83882546e-01 -1.23759173e-01 -2.47749314e-01
      1.84853643e-01 -1.28482783e+00 -8.37094247e-01 2.43814886e-01
      -1.71128988e-01 -2.39658467e-02 -3.28716218e-01 4.69486237e-01
      3.92762214e-01 -4.75630850e-01 -6.61865830e-01 -1.06757009e+00
      -1.14001585e-02 -8.97030681e-02 -3.51766855e-01 -4.94667254e-02
      -2.36666843e-01 1.63308397e-01 -3.31077009e-01 3.58890921e-01
      1.89171866e-01 2.98648328e-01 -9.21748877e-01 -3.48211825e-01
      5.65549433e-01 -1.73781201e-01 -3.17566320e-02 -1.80270016e-01
      1.98908195e-01 -1.30835295e-01 6.51978850e-01 -1.13136075e-01
      -2.21185341e-01 -2.62067705e-01 3.83547917e-02 6.56609833e-01
      -3.97447139e-01 -2.69449234e-01 1.49530396e-01 -5.36186159e-01
      -1.49118543e+00 -7.56515682e-01 1.76147431e-01 2.26670742e-01
      5.04951239e-01 -1.47978082e-01 2.17772275e-01 -6.96090639e-01
      -6.26963258e-01 1.11526720e-01 6.35877550e-02 3.46869260e-01
      3.64666551e-01 5.91836393e-01 5.42591512e-01 6.64180219e-01
      8.96969810e-03 6.23241127e-01 6.47330761e-01 3.70632648e-01
      -5.32229364e-01 -3.74744177e-01 5.75187385e-01 1.44145107e-02
      -1.43491849e-01 -1.92935646e-01 -1.41971111e+00 -2.43462682e-01
      1.11114979e+00 1.05211592e+00 -1.04932658e-01 -6.71192110e-02
      -4.88188893e-01 -5.13675623e-02 4.01931852e-01 -7.89036751e-01
      1.40214682e-01 8.35216701e-01 1.22509122e+00 1.17618531e-01
      2.10252404e-02 -3.80567044e-01 -6.75691485e-01 -5.77162981e-01
      1.15728481e-02 3.20273757e-01 3.19236040e-01 -2.56243497e-01
      -5.99398673e-01 -3.39692354e-01 -8.29117239e-01 -8.87166381e-01
      4.23558772e-01 -4.86902088e-01 -5.60481012e-01 1.68609947e-01
      -1.92381769e-01 3.03963363e-01 4.46302742e-01 -4.26540941e-01
      -3.46461326e-01 -3.38485628e-01 -9.36648905e-01 1.55613971e+00
      5.11787757e-02 -6.66775227e-01 -3.10027212e-01 5.65225542e-01
      -3.95695895e-01 -1.33187127e+00 1.18245957e-02 -7.35185802e-01
      -3.46637331e-02 -3.18726338e-02 -5.24838150e-01 1.68243185e-01
      2.25748092e-01 1.67324930e-01 -1.32163620e+00 -1.23058414e+00
      -9.24199745e-02 -1.23591948e+00 -8.98635983e-01 1.60284460e-01
      6.43102765e-01 8.01996291e-01 4.89855558e-01 1.11423242e+00
      2.21014452e+00 -1.05204570e+00 -1.42694080e+00 -1.06450804e-01
      7.28986800e-01 2.59415865e-01 4.84055191e-01 1.18947297e-03
      2.44558319e-01 2.78456867e-01 -3.54730666e-01 -1.71755862e+00
      -1.34390271e+00 -2.73483068e-01 9.25491750e-02 2.19448715e-01
      7.91969001e-01 8.56331289e-01 3.79159190e-02 -1.10171103e+00
      -1.93878639e+00 -7.69091129e-01 1.54275537e-01 6.34651184e-01
      3.35516006e-01 2.87110031e-01 -8.63903463e-02 1.06441712e+00
      -1.93018585e-01 -3.89639318e-01 1.13133466e+00 3.26230913e-01
      -4.76393461e-01 -5.91276705e-01 -2.37662449e-01 -3.28675434e-02
      5.16081274e-01 6.73344672e-01 7.25291809e-03 7.07240522e-01
      1.14560895e-01 -7.36979008e-01 -3.87579739e-01 5.77854319e-03
      8.59472677e-02 -2.19626520e-02 -3.99899930e-01 -1.05389190e+00
      7.55448163e-01 -3.12339127e-01 -1.04985499e+00 -7.57893503e-01
      5.65348789e-02 3.93910438e-01 6.65925145e-01 3.37401740e-02
      -3.68782312e-01 1.23113103e-01 -7.16857851e-01 -1.28175068e+00
      2.27234811e-01 1.47168890e-01 -2.02168092e-01 2.09404066e-01
      6.87672675e-01 7.70666897e-01 -7.83306897e-01 -6.10927820e-01
      -2.20974132e-01 8.43110383e-02 1.19060206e+00 -1.54537439e-01
      -1.90798903e+00 -1.63964689e+00 1.77353096e+00 8.33943188e-01
      -2.12809846e-01 -5.12404084e-01 -2.64233440e-01 5.86451709e-01
      -5.23806453e-01 -8.72894764e-01 -5.02580047e-01 -5.40603697e-01
      -5.76573849e-01 -1.78592011e-01 -1.15257406e+00 -8.22630107e-01
      4.21189666e-01 -1.78190902e-01 -4.49080110e-01 -1.97482273e-01
      6.08893633e-01 -3.72716412e-02 -1.12979837e-01 -1.46743894e+00
      -3.05528939e-01 3.49856354e-02 4.70092595e-01 -3.08092147e-01
      -7.37375498e-01 -3.54372352e-01 4.09637868e-01 -7.41453623e-05
      -1.58757344e-01 -2.73323059e-01 -1.32595554e-01 4.21284996e-02
      -2.60933071e-01 4.23711061e-01 1.12878978e-01 2.83696204e-01
      -6.33996725e-02 6.16801977e-01 4.75261539e-01 9.50704589e-02
      -5.86613901e-02 9.22754467e-01 -4.14403796e-01 9.27982092e-01
      4.26278532e-01 7.54717737e-03 -4.20216858e-01 -3.79653335e-01
      -3.88449609e-01 3.54689598e-01 -3.32027048e-01 -7.19719291e-01
      -3.00677568e-01 5.46161473e-01 -1.70855567e-01 -4.06568408e-01
      2.97171295e-01 -8.50991666e-01 6.24597847e-01 -4.68860775e-01
      3.53196561e-01 -2.09095865e-01 -6.54697642e-02 -6.41029060e-01
      -2.08106399e-01 -1.79595000e-03 -3.63301873e-01 -5.66764295e-01
      -4.99692596e-02 2.75593311e-01 -1.04970731e-01 -3.18039387e-01
      -8.47920299e-01 -1.96076035e-02 3.46043468e-01 -4.91965443e-01
      -1.06528604e+00 -1.21620774e+00 8.46467540e-02 -1.13871229e+00
      4.60726470e-01 4.32209671e-01 -4.85399306e-01 -7.16434598e-01
      -5.90579927e-01 -3.68282199e-01 -9.38833296e-01 1.78106815e-01
      5.93348622e-01 -8.45957454e-03 9.37927186e-01 -4.10330057e-01
      -6.15803719e-01 -1.99011974e-02 -1.78337157e-01 -5.22024930e-01</_>
    <_>
      1.63724750e-01 3.63320887e-01 2.23541811e-01 6.24836721e-02
      3.19042280e-02 3.37887853e-01 9.27318335e-01 1.45714894e-01
      -9.72756684e-01 4.91734505e-01 -3.66010182e-02 -1.32512033e-01
      -8.88287947e-02 -4.60787676e-02 1.82673588e-01 2.28218794e-01
      1.69792265e-01 3.29357713e-01 7.62616873e-01 -5.93340881e-02
      -6.77873373e-01 -9.96956587e-01 -1.24754167e+00 -6.46903872e-01
      -1.35931119e-01 -1.15371728e+00 -6.52366161e-01 -4.80252385e-01
      -1.15506303e+00 -1.30290449e+00 -3.05112422e-01 -5.70904016e-01
      -1.93973750e-01 8.59928608e-01 1.99504390e-01 -9.48413253e-01
      1.01397194e-01 1.61673987e+00 6.43763095e-02 1.74761757e-01
      -2.19519019e-01 -1.56304762e-01 1.45498365e-02 3.31763387e-01
      3.71738374e-01 -2.15214789e-02 -2.89098114e-01 2.42573023e-02
      5.05115509e-01 -2.21951213e-02 -8.99519771e-02 -2.35094517e-01
      -4.55885828e-01 -8.95222485e-01 -2.54215211e-01 -3.00436199e-01
      -5.39686918e-01 4.24139887e-01 -1.58881202e-01 -9.66975018e-02
      1.27428785e-01 1.58096448e-01 -1.25244236e+00 -7.90479124e-01
      3.46656740e-01 1.66607901e-01 3.59107316e-01 -1.50170550e-01
      -2.74634451e-01 -6.71881139e-02 -4.61701900e-01 -4.82788086e-02
      -8.28539789e-01 1.12585604e-01 5.86959839e-01 -6.20163202e-01
      5.42260528e-01 1.13799179e+00 3.83907795e-01 6.10069752e-01
      3.03467184e-01 1.05017018e+00 1.43156838e+00 -4.58956480e-01
      -3.93654436e-01 1.88781619e-01 7.27069318e-01 -1.52728781e-01
      7.44022191e-01 -1.50342897e-01 2.93624520e-01 4.46807444e-01
      -6.33727968e-01 2.52927423e-01 -3.10432971e-01 2.92526543e-01
      -6.70559287e-01 -1.62770838e-01 1.06483114e+00 -2.58165061e-01
      -1.25896215e-01 -2.69129544e-01 6.51307702e-01 2.97476828e-01
      -6.11796021e-01 -7.16780603e-01 -7.18914747e-01 -3.36378783e-01
      1.55993664e+00 5.74017107e-01 -2.56061219e-02 -1.88208595e-01
      -6.87500179e-01 -2.54363324e-02 -1.79319978e-01 3.67219746e-01
      4.63235080e-01 -5.57780266e-01 -7.74101734e-01 -5.46420157e-01
      -3.84097159e-01 4.32065636e-01 -3.33789617e-01 8.07259381e-01
      7.50109136e-01 1.14455330e+00 8.65012825e-01 -4.59424615e-01
      5.08466482e-01 1.40237212e+00 -7.57891715e-01 5.06175682e-02
      -1.11257613e+00 -1.43585491e+00 3.34011316e-02 -1.18589270e+00
      -1.08971906e+00 -1.23670828e+00 -6.07585669e-01 4.04011667e-01
      1.37921453e+00 -1.14491388e-01 5.89181364e-01 4.86532807e-01
      -6.06655896e-01 -1.63837209e-01 -5.10844886e-01 5.52314937e-01
      -7.29531288e-01 -8.79788280e-01 1.43782544e+00 2.15205520e-01
      8.91519129e-01 -4.33465153e-01 5.89593291e-01 -1.68618187e-01
      2.63853878e-01 -6.66872084e-01 -5.95409513e-01 -2.60558754e-01
      -1.54632354e+00 6.20543599e-01 -3.70470434e-01 -5.55147052e-01
      -9.61232185e-01 -2.72033840e-01 -8.56345296e-01 -5.43947637e-01
      -8.61808002e-01 -6.04031503e-01 1.38886380e+00 3.22457373e-01
      1.02837741e+00 1.04086506e+00 1.66447565e-01 -1.29777610e+00
      -5.60446307e-02 -1.46545017e+00 -1.36677265e+00 -3.80367279e-01
      -4.94778246e-01 -2.23662108e-01 5.34903705e-01 9.64885175e-01
      -4.40892547e-01 -3.00121397e-01 2.09328663e-02 -7.33824193e-01
      8.21062744e-01 -7.12038800e-02 -5.41872799e-01 7.08108991e-02
      -7.57206380e-01 -1.31582558e+00 -6.65855169e-01 4.97780647e-03
      6.59426227e-02 9.24501896e-01 -9.01703656e-01 -7.59904206e-01
      3.38792026e-01 1.06863523e+00 3.20001721e-01 7.93637097e-01
      2.88876355e-01 1.92627564e-01 -4.36772019e-01 -1.33529618e-01
      -1.12563121e+00 -3.26651692e-01 -1.24374139e+00 7.68290237e-02
      -8.13341498e-01 3.46857399e-01 5.07739186e-01 9.57565129e-01
      4.02348310e-01 9.99127150e-01 3.21753949e-01 5.43377638e-01
      4.16870892e-01 6.56495988e-01 -4.13230032e-01 -1.05188060e+00
      -1.85715631e-01 -5.31062663e-01 -6.20372713e-01 -5.51979005e-01
      5.73104322e-01 1.04300094e+00 3.40556055e-01 -2.02365384e-01
      -2.06965491e-01 8.95433798e-02 1.91750843e-02 1.96880758e-01
      3.35583128e-02 -1.29327571e+00 4.22061503e-01 7.25467026e-01
      4.84914511e-01 1.20942369e-01 3.25459033e-01 -7.68142283e-01
      2.78507080e-02 8.91290754e-02 3.47649723e-01 1.40865695e+00
      3.92579228e-01 4.32105213e-01 7.44636595e-01 -2.07445240e+00
      7.23879218e-01 1.05334498e-01 1.86766982e-01 4.59208518e-01
      4.70919967e-01 1.49206862e-01 -6.89121068e-01 -6.12068236e-01
      3.79289508e-01 8.61910045e-01 7.03596413e-01 8.77532005e-01
      2.93859154e-01 9.91540253e-02 6.74834922e-02 -7.54187644e-01
      -5.62287211e-01 -5.58873057e-01 -4.55515325e-01 -3.25134188e-01
      2.81109884e-02 6.15927875e-01 4.63446051e-01 3.22300762e-01
      6.04445823e-02 2.74414778e-01 -4.19553787e-01 -6.90652847e-01
      4.49574202e-01 3.71021569e-01 -2.67466158e-01 -3.59820008e-01
      5.82160503e-02 -1.09082913e+00 3.68885458e-01 -4.44403589e-01
      -5.50265789e-01 -7.07684517e-01 3.04874569e-01 -1.64091870e-01
      4.28613424e-01 5.03000438e-01 2.69714564e-01 7.60864913e-01
      -4.53117460e-01 1.93186760e-01 -5.17845452e-01 -4.38175917e-01
      -1.59697048e-02 3.93404335e-01 6.56853557e-01 5.97710788e-01
      2.07259506e-01 -6.80998623e-01 -7.66359866e-01 -5.30151904e-01
      3.72609466e-01 -8.24467659e-01 -1.12595931e-01 -4.38719004e-01
      -1.38698864e+00 -9.79048014e-01 5.49924886e-03 1.05482236e-01
      -1.31810915e+00 -1.82307482e-01 2.06163839e-01 4.31280136e-01
      3.14373910e-01 -1.17860407e-01 1.10596693e+00 3.57176304e-01</_>
    <_>
      1.42506373e+00 2.70021379e-01 -1.00200391e+00 -1.62023950e+00
      -3.95687401e-01 1.21093631e+00 -1.24375522e-02 -1.00986493e+00
      -4.77586776e-01 9.00880992e-01 2.55434847e+00 -1.88979078e-02
      -3.69325250e-01 -3.48419906e-03 -5.20589501e-02 -6.09809279e-01
      -5.25834203e-01 -4.41091657e-01 3.69374394e-01 -5.07488072e-01
      7.21927345e-01 6.48102343e-01 -5.52845359e-01 -8.37378025e-01
      1.54530799e+00 -5.69029272e-01 -1.87821448e-01 5.64122438e-01
      -2.34778017e-01 -7.68953741e-01 1.58976361e-01 -6.18410297e-02
      -5.85050702e-01 -3.29229087e-01 7.62733042e-01 -2.14921255e-02
      8.56378913e-01 1.51075995e+00 -9.68092084e-01 1.16649640e+00
      8.30680549e-01 1.11787641e+00 -4.03942376e-01 -6.23347342e-01
      -7.79803872e-01 2.26589665e-01 -7.39252508e-01 7.23888874e-02
      6.18354797e-01 -9.94001091e-01 -4.87759322e-01 5.03774405e-01
      -2.52461880e-01 -7.65337765e-01 1.25557339e+00 -1.81395400e+00
      -1.43990958e+00 1.94660112e-01 1.26755163e-01 6.84755981e-01
      -4.44928229e-01 1.09149504e+00 8.63245666e-01 1.73827112e-02
      -2.01994061e+00 -6.05871856e-01 2.17534557e-01 -6.09230936e-01
      -5.21060407e-01 1.14663824e-01 2.80425459e-01 4.86011386e-01
      -3.13948048e-03 -1.62063330e-01 -3.52419496e-01 1.17894113e-01
      -1.45277214e+00 -6.29648805e-01 5.76388896e-01 -2.46556997e-01
      -9.02202606e-01 -1.37565804e+00 1.35733485e+00 1.15218842e+00
      5.72454512e-01 -6.82883680e-01 2.04406142e-01 1.38737485e-01
      8.02143097e-01 -1.17968583e+00 5.88808775e-01 -2.66748756e-01
      1.47512460e+00 -3.76978889e-02 -1.04295051e+00 -1.01660728e+00
      -5.50889850e-01 -7.87674367e-01 1.14348364e+00 2.22360805e-01
      6.55245364e-01 -8.90172303e-01 -5.30581772e-01 -1.03749859e+00
      -6.42732263e-01 4.63233709e-01 5.11726558e-01 -3.69615763e-01
      1.09660137e+00 -3.96743327e-01 1.81484550e-01 1.28624618e+00
      1.30941701e+00 9.54996705e-01 1.46078026e+00 8.61913085e-01
      1.47320414e+00 4.14803177e-01 -2.43928060e-01 -7.15493619e-01
      4.70515817e-01 2.87492305e-01 -1.11259237e-01 -7.07443953e-01
      3.79697978e-01 -8.45652103e-01 -7.29492366e-01 -1.82820737e+00
      -1.35453320e+00 -8.57649326e-01 -8.56390238e-01 -4.77556705e-01
      -3.10994714e-01 3.68577868e-01 -1.25330710e+00 5.40065050e-01
      -6.57552004e-01 -2.84835428e-01 5.75447500e-01 1.85559106e+00
      6.45639658e-01 9.30777788e-02 1.76453561e-01 -1.30346334e+00
      2.22642973e-01 -4.48664933e-01 -1.55004072e+00 -2.46988684e-01
      3.47111940e-01 1.40482724e+00 5.09657741e-01 9.55671728e-01
      -4.87528265e-01 -1.56257558e+00 -4.15387452e-01 -1.08727777e+00
      -7.80246675e-01 -3.20012569e-02 1.09821093e+00 -2.15204164e-01
      8.48239541e-01 8.28640044e-01 1.91083208e-01 -9.53732014e-01
      1.02551794e+00 3.94511700e-01 9.02870834e-01 6.35913610e-01
      6.92247599e-03 4.10315901e-01 3.18013489e-01 1.05085683e+00
      1.96781322e-01 -2.20834270e-01 -3.40775512e-02 1.14673924e+00
      -9.76837456e-01 -6.48335218e-01 1.30619788e+00 -1.28296816e+00
      -7.98528254e-01 1.00777054e+00 1.56470263e+00 5.58072962e-02
      2.20128745e-01 -1.17739379e+00 -5.80316246e-01 -4.09985840e-01
      8.85732591e-01 -8.70039221e-03 6.40663326e-01 7.76504338e-01
      -7.56103575e-01 2.28962272e-01 -1.07783234e+00 -6.43668115e-01
      7.74519026e-01 -7.08391786e-01 -2.27044892e+00 -1.20903619e-01
      2.94706970e-01 -1.08553655e-02 2.62630153e-02 -1.62328184e-01
      -3.85792553e-01 3.79059650e-02 -9.69752431e-01 -5.25711477e-01
      -5.42168975e-01 -7.87758887e-01 -7.17686653e-01 -2.94006318e-01
      -1.03229487e+00 -9.25359409e-03 1.79431736e-01 -9.70800817e-01
      -1.07271634e-01 2.58064485e+00 1.56276238e+00 -4.28502947e-01
      1.95048869e-01 -3.09261471e-01 -8.71012807e-01 -4.93264467e-01
      -1.92628610e+00 1.47412419e-01 3.48821461e-01 6.51733935e-01
      -2.40780234e-01 3.65549147e-01 8.41023207e-01 8.45189318e-02
      -7.51529694e-01 -1.39498830e+00 1.00092612e-01 1.48757827e+00
      1.30969957e-01 -1.59016955e+00 2.53425092e-01 7.28998065e-01
      8.75854939e-02 5.19682765e-01 -2.85812825e-01 -7.64345706e-01
      -1.59590495e+00 -9.47111130e-01 -3.32620323e-01 -8.49939108e-01
      4.11248714e-01 4.57587093e-01 5.23554683e-01 -6.91761851e-01
      -3.46385598e-01 6.33571327e-01 7.89645910e-01 1.74650267e-01
      7.52113461e-01 -2.77118921e-01 -5.95643401e-01 -4.54212338e-01
      -1.32750496e-01 6.13367975e-01 1.69924414e+00 4.04264539e-01
      3.43995214e-01 6.35280192e-01 -1.40603888e+00 -1.29926121e+00
      -1.20050943e+00 4.88926589e-01 -6.26950443e-01 1.15056336e-01
      -3.48571092e-02 6.69815838e-01 -5.20130038e-01 -6.40052140e-01
      -5.75423062e-01 6.44141316e-01 -7.99905837e-01 -1.11278653e+00
      -3.66535425e-01 -6.16411567e-02 -7.58293450e-01 -4.62161094e-01
      -1.35294330e+00 -7.42401063e-01 -5.87492883e-01 -1.34734738e+00
      -3.31469059e-01 -1.11149955e+00 -1.46641409e+00 -6.96654856e-01
      1.03728640e+00 3.83965224e-01 7.63316870e-01 3.15249056e-01
      8.09271336e-01 -8.71337891e-01 -8.37009728e-01 -5.17887831e-01
      -9.96642947e-01 -6.48441792e-01 -3.67139131e-01 9.26373303e-01
      5.26199043e-01 1.68463886e-01 -4.63765822e-02 2.31063172e-01
      -2.38651901e-01 -8.12796235e-01 -1.58719450e-01 -1.24650434e-01
      8.32180560e-01 -4.66163158e-01 -1.20774853e+00 -2.35891700e-01
      4.59381968e-01 -5.61998248e-01 4.57642645e-01 -1.18815161e-01
      -1.06910598e+00 -2.71951526e-01 2.80452728e-01 -1.10635953e-02</_>
    <_>
      -5.59159182e-02 -3.90428692e-01 -1.88571379e-01 2.76908010e-01
      3.86489928e-01 1.76593065e-01 6.25294864e-01 8.68260264e-01
      1.90965906e-01 1.09508120e-01 -2.66493827e-01 -3.10451806e-01
      1.09718055e-01 -3.06974947e-01 -3.48808646e-01 -2.00161979e-01
      2.74162084e-01 2.35686377e-01 -7.93992877e-01 -3.21256548e-01
      -4.43548650e-01 -4.50570643e-01 -1.61203250e-01 6.63380846e-02
      1.98554948e-01 1.06991589e-01 -6.42584503e-01 -9.88658488e-01
      -6.34119213e-01 -1.98818266e-01 2.16640696e-01 2.28277951e-01
      1.05887897e-01 4.00969870e-02 -7.60003179e-02 -6.05028331e-01
      2.73857594e-01 2.48578370e-01 -1.17008671e-01 7.97009934e-03
      -5.34770608e-01 -4.19002265e-01 -2.91528702e-01 -4.59582150e-01
      3.20027590e-01 3.01319331e-01 1.36216521e-01 1.05874620e-01
      3.18256617e-01 -2.43406877e-01 -1.78054065e-01 -6.11953810e-02
      -3.80931824e-01 2.02491432e-01 -5.83902359e-01 -2.56073894e-03
      1.43386781e-01 -1.04253203e-01 -6.09319091e-01 -6.92159414e-01
      -3.57439965e-01 1.57734379e-01 -7.92596340e-01 3.17538202e-01
      3.32289249e-01 2.64143884e-01 -2.09231332e-01 -7.44925618e-01
      -9.84492719e-01 -2.47388884e-01 1.69240519e-01 1.91614047e-01
      -2.60210276e-01 -1.91545069e-01 1.23434342e-01 5.85564137e-01
      2.34735772e-01 7.16557264e-01 9.72783789e-02 -2.44635656e-01
      -4.67028886e-01 -7.38408804e-01 -5.80109298e-01 -1.23785980e-01
      2.04560205e-01 2.66629159e-01 6.57924950e-01 9.73402709e-02
      -3.84671152e-01 -7.81656325e-01 -7.30855986e-02 -1.63761839e-01
      2.78909862e-01 2.13488355e-01 -2.46045336e-01 1.23292826e-01
      -6.14169091e-02 -3.21184844e-02 3.31691094e-02 1.01008028e-01
      -5.40762059e-02 2.01121926e-01 9.51046403e-03 -4.52579826e-01
      -3.19706768e-01 -1.52308464e-01 -9.23918709e-02 -2.52053529e-01
      -2.41632357e-01 1.59426823e-01 -2.56012440e-01 -7.26422787e-01
      -3.37785393e-01 -1.72825426e-01 5.15514672e-01 5.08736670e-01
      -1.63794845e-01 -7.60577917e-01 -1.69674456e-02 9.33249742e-02
      -2.33568251e-01 -5.12152351e-02 2.22328037e-01 3.34717989e-01
      2.83163518e-01 -5.48156559e-01 7.60223297e-03 5.09998262e-01
      2.08742663e-01 -4.31121111e-01 -5.77716887e-01 -3.44035715e-01
      3.16608995e-01 4.16440696e-01 1.88829169e-01 9.24625620e-03
      3.98112237e-01 3.57198119e-01 -2.80369818e-01 -4.36982960e-01
      -3.89118314e-01 -1.44422501e-01 1.27879530e-01 1.09095640e-01
      -1.70171961e-01 5.25093257e-01 2.48585567e-01 -3.84158581e-01
      -4.13834304e-01 -2.98028171e-01 -4.52682942e-01 1.62369996e-01
      8.51600319e-02 4.82702285e-01 7.24116862e-01 3.52488495e-02
      -3.76392901e-01 -4.97294188e-01 -5.07127643e-01 -2.98516095e-01
      2.12066635e-01 3.70168746e-01 8.63745630e-01 5.63508689e-01
      3.59793365e-01 1.18692249e-01 -7.04739988e-02 -6.70729578e-01
      -8.40860248e-01 -6.21907055e-01 3.11598212e-01 -1.17220115e-02
      2.61145741e-01 -3.23694311e-02 3.95182967e-02 5.32709837e-01
      -1.62146669e-02 -5.67232728e-01 -6.68263614e-01 -2.89778829e-01
      -2.80866355e-01 1.61369592e-02 1.53448343e-01 1.96117237e-01
      -2.66679585e-01 9.60671604e-02 2.78740346e-01 2.40235656e-01
      2.94859052e-01 7.19273314e-02 4.30304557e-02 1.76577817e-03
      -5.90846896e-01 -3.99782628e-01 -4.22731489e-01 1.71061337e-01
      3.89756441e-01 4.34153765e-01 -4.83277380e-01 -5.42515755e-01
      3.17126364e-02 5.06444216e-01 6.08348012e-01 4.39740926e-01
      3.24884951e-01 -2.04040766e-01 -2.27062806e-01 -1.98912889e-01
      -3.06624919e-01 -5.36937356e-01 -1.49243195e-02 3.07043165e-01
      1.24126934e-02 2.55626142e-01 4.30106908e-01 2.09480211e-01
      -3.04218352e-01 3.63340005e-02 3.40401858e-01 7.04105347e-02
      6.38189465e-02 -2.57875234e-01 1.88899674e-02 -2.52204631e-02
      -8.04878175e-02 1.76828012e-01 1.63754448e-01 1.61884114e-01
      2.58449882e-01 1.44440681e-01 -2.88383812e-01 -3.48028690e-02
      -9.34623461e-03 1.59490556e-01 7.51276165e-02 -4.72363949e-01
      -2.17750400e-01 -2.11656049e-01 -9.33102816e-02 1.35858431e-01
      -1.00834034e-02 2.98211813e-01 -4.10440080e-02 -3.38246375e-01
      -2.77022004e-01 -3.53568643e-01 -2.36596540e-02 -8.50079656e-02
      8.40485692e-02 9.47127566e-02 -3.86631973e-02 -3.35930765e-01
      6.42784059e-01 4.25333709e-01 2.80253112e-01 2.96431094e-01
      3.91469777e-01 7.19326138e-02 -2.12155819e-01 -2.12834418e-01
      2.82258540e-01 2.15958674e-02 3.89024943e-01 2.38037542e-01
      2.93675244e-01 3.46710980e-01 3.08765888e-01 1.34733424e-01
      -2.05387399e-01 -4.13674228e-02 -4.13956702e-01 -1.63993031e-01
      3.98647599e-02 2.73689717e-01 1.59179628e-01 2.10482404e-01
      2.44160190e-01 -2.95055568e-01 4.02229652e-02 -5.08195996e-01
      5.61726652e-02 2.99737781e-01 2.50390500e-01 -2.58015841e-01
      -1.01003781e-01 -3.05493265e-01 -5.06690919e-01 -3.87083471e-01
      -2.50620693e-01 -1.68449819e-01 -4.77202889e-03 2.70406663e-01
      3.17689151e-01 3.09990346e-01 4.10903692e-01 1.97985068e-01
      -8.72470513e-02 7.39475787e-02 -2.40825862e-01 -2.26209626e-01
      1.99429125e-01 1.96272179e-01 9.43480134e-02 3.03614914e-01
      3.27741265e-01 4.30539221e-01 -2.26284504e-01 1.59422427e-01
      -5.54667674e-02 -1.20059913e-02 -5.49775243e-01 -5.04848957e-01
      -2.96282381e-01 -1.19715653e-01 -3.23834479e-01 -9.11969841e-02
      3.31834853e-01 8.19550529e-02 1.78925514e-01 5.65256402e-02
      3.34337093e-02 3.11239570e-01 8.25965628e-02 3.13562632e-01</_>
    <_>
      5.64887941e-01 2.70964116e-01 4.37028594e-02 2.67432239e-02
      8.95627886e-02 4.11985554e-02 -7.42088556e-02 -1.31232768e-01
      2.75817841e-01 1.50122151e-01 3.57872307e-01 1.27055675e-01
      7.33417273e-02 1.68587297e-01 4.72552590e-02 -2.69566048e-02
      -4.49651957e-01 -3.65540683e-02 -2.34383613e-01 -4.13929462e-01
      2.88067991e-03 1.38869792e-01 5.21813557e-02 7.96137974e-02
      1.17477395e-01 3.58651400e-01 -2.46692941e-01 -2.14718342e-01
      5.11335135e-02 -7.08223581e-02 9.49851424e-02 5.95114008e-03
      8.78536403e-02 -3.84560287e-01 -2.34757915e-01 -1.92661658e-01
      -1.96057148e-02 1.96165681e-01 1.15123257e-01 5.79965524e-02
      1.17730938e-01 1.24050165e-02 1.30445650e-02 4.19281721e-02
      1.03130966e-01 1.14769325e-01 8.78756866e-02 9.68235880e-02
      5.20768873e-02 1.24880403e-01 2.44917739e-08 4.94917817e-02
      1.20202199e-01 -9.27607715e-02 -1.17532574e-01 -3.51487905e-01
      -3.76941115e-02 3.36709209e-02 2.77519636e-02 4.90431190e-02
      -3.17922056e-01 -3.14511985e-01 -1.35017127e-01 -1.51069060e-01
      -4.12696928e-01 -2.09557593e-01 1.22242719e-02 6.89945444e-02
      1.41677503e-02 2.19406188e-02 1.03338338e-01 -2.04238128e-02
      -4.46555950e-03 7.20094293e-02 9.60128754e-02 6.55538663e-02
      1.71766356e-01 7.10676089e-02 1.40171051e-01 1.31840020e-01
      -1.53320611e-01 -2.47039303e-01 -2.86029756e-01 -5.96972997e-04
      4.14279066e-02 9.78167951e-02 8.56460035e-02 1.23172946e-01
      1.30201116e-01 7.02326521e-02 -2.20546812e-01 -8.92141908e-02
      -6.43038079e-02 4.85666990e-02 6.75818846e-02 9.11552981e-02
      1.47873715e-01 2.65773177e-01 -1.95487142e-01 -2.48125255e-01
      2.71527529e-01 1.13499545e-01 4.58520725e-02 7.75071532e-02
      1.30645514e-01 -1.37302682e-01 -2.59664625e-01 -1.80879131e-01
      -1.62838832e-01 -2.26278394e-01 -1.31324455e-01 1.25351816e-01
      5.82853481e-02 7.52346665e-02 2.56071948e-02 3.05837721e-01
      -1.40134409e-01 -1.25832617e-01 -1.51113432e-03 -8.50776732e-02
      1.21436462e-01 7.98614249e-02 1.38340309e-01 -3.15039814e-01
      -9.59837288e-02 -1.37059852e-01 -1.32969633e-01 1.31906316e-01
      -7.95392618e-02 1.23400316e-01 1.15642473e-01 1.10973187e-01
      -1.15806580e-01 -1.37978643e-01 -8.57200921e-02 -4.52515483e-02
      -3.04599673e-01 -1.14015818e-01 1.08195193e-01 1.14377521e-01
      1.83105096e-01 -2.14410126e-02 1.76586226e-01 -1.05554111e-01
      2.11708546e-02 -1.95264578e-01 -1.64738461e-01 2.81926244e-03
      -5.94555028e-02 7.52630904e-02 -3.31236273e-01 -3.16131443e-01
      6.67834515e-03 9.30096433e-02 -2.92659104e-01 -3.13666373e-01
      -6.42143860e-02 -1.07196927e-01 -5.43484837e-02 -2.28218436e-01
      -5.93368225e-02 5.23538888e-02 1.68556675e-01 -2.52229214e-01
      -2.54293174e-01 1.99142694e-02 -6.29491881e-02 9.40642357e-02
      -2.32996836e-01 -7.16507733e-02 -1.19964322e-02 1.92672625e-01
      1.14836775e-01 -8.19311962e-02 -3.92869348e-03 -1.57832846e-01
      -6.43119141e-02 -7.34773159e-01 -5.49543917e-01 4.47093472e-02
      -1.76949605e-01 -1.26107499e-01 -7.01033995e-02 5.49520440e-02
      2.47482006e-02 3.89537401e-02 -6.65163547e-02 1.82435408e-01
      -1.57293290e-01 -1.41493440e-01 8.09469819e-02 2.15500277e-02
      4.02373075e-02 2.95908954e-02 1.11619920e-01 -1.19534522e-01
      1.62738245e-02 -2.00167611e-01 -8.04739445e-02 1.79271236e-01
      7.37744346e-02 9.80902314e-02 6.31619841e-02 9.96208414e-02
      -2.54413068e-01 -2.16872200e-01 -1.33188680e-01 -1.48459032e-01
      -1.51990324e-01 4.65012193e-02 1.51813000e-01 9.81035903e-02
      2.70911306e-01 1.43816873e-01 3.38036388e-01 -1.46676078e-01
      -2.05168605e-01 5.22842743e-02 -2.97266971e-02 8.93946663e-02
      1.10954143e-01 1.20434314e-01 -4.22084183e-02 -1.37471870e-01
      -3.25622529e-01 -1.20990135e-01 -2.94418931e-01 -1.49364486e-01
      3.18478718e-02 8.19088668e-02 1.08782493e-01 1.05128467e-01
      1.60896435e-01 -1.10604346e-01 -1.02318093e-01 -1.03199326e-01
      1.70384571e-01 7.05300272e-02 1.42285138e-01 7.14372173e-02
      1.11967377e-01 2.70717025e-01 2.69301862e-01 2.57970695e-03
      9.86004807e-03 1.39557838e-01 7.46437386e-02 2.36521631e-01
      9.56151709e-02 1.15529232e-01 1.53739944e-01 -3.60773015e-03
      -1.72584176e-01 -4.33179647e-01 -2.00707763e-01 1.10015599e-02
      -5.14694490e-03 4.17954847e-02 -1.57221943e-01 -1.44467615e-02
      -2.60285527e-01 -1.90256074e-01 2.22943857e-01 2.22311672e-02
      3.30169648e-02 -1.91444010e-02 2.58795936e-02 -5.43149412e-01
      -5.66767991e-01 -1.54136911e-01 7.20395297e-02 1.54710665e-01
      7.71251172e-02 6.47479221e-02 1.63273320e-01 7.08308667e-02
      1.09361008e-01 1.99512586e-01 7.20295385e-02 4.18376811e-02
      3.08253884e-01 1.18882634e-01 6.83361143e-02 1.84748337e-01
      7.18646646e-02 9.71900895e-02 2.82583207e-01 7.84494728e-02
      -2.83020824e-01 3.53205472e-01 1.04923606e-01 9.99210700e-02
      1.37301728e-01 1.49367705e-01 -1.83186486e-01 -3.30197573e-01
      -1.89277560e-01 -3.64982098e-01 1.63851064e-02 6.41579032e-02
      1.78449452e-01 2.26455301e-01 2.28611887e-01 1.03714898e-01
      1.73090056e-01 -2.32645050e-01 -6.00987636e-02 3.69385332e-01
      1.55698746e-01 9.57872942e-02 2.47459665e-01 9.30655971e-02
      1.22172430e-01 2.74619937e-01 -1.20932527e-01 5.41017316e-02
      3.64781678e-01 1.31700471e-01 1.17081881e-01 1.85268328e-01
      8.02466720e-02 1.07431516e-01 -1.10718928e-01 -1.32344902e-01</_>
    <_>
      -2.76094526e-02 2.14817271e-01 7.10272565e-02 3.23462044e-03
      -2.09561456e-02 1.35915861e-01 1.81103140e-01 1.96510996e-03
      -1.37218177e-01 1.22283965e-01 7.41762072e-02 9.67401117e-02
      1.41461641e-01 2.66845822e-02 1.98067531e-01 1.89721137e-01
      -9.63862315e-02 2.80255098e-02 -2.27469608e-01 -6.51171282e-02
      3.35502058e-01 2.98448622e-01 -4.63788770e-02 -1.45284832e-01
      -2.03891918e-01 -4.35484022e-01 -5.04567921e-01 -2.29506847e-03
      -1.06955960e-01 1.41413569e-01 2.78278857e-01 1.59672514e-01
      3.60193029e-02 -4.83526997e-02 -8.83431956e-02 -7.41245076e-02
      5.06261252e-02 2.83173859e-01 1.23075983e-02 2.57491246e-02
      6.04817085e-02 5.08356988e-02 -6.62889853e-02 3.88107263e-02
      4.98070009e-02 5.06261252e-02 1.74383521e-01 2.04473846e-02
      9.96665210e-02 5.30151725e-02 6.33964911e-02 -5.15694767e-02
      -4.87836497e-03 -1.35322884e-01 4.40437682e-02 -3.23408544e-01
      -1.90422893e-01 8.50496292e-02 1.07748382e-01 7.11486787e-02
      4.32511643e-02 6.54318631e-02 2.89240032e-01 -2.50923127e-01
      -4.92386580e-01 -3.52140605e-01 9.08765867e-02 8.00984353e-02
      1.17216006e-01 -1.77378450e-02 -6.21040314e-02 9.30292755e-02
      -2.38494799e-02 1.48797333e-01 1.49369583e-01 9.63700563e-02
      7.80709162e-02 1.43497720e-01 -2.01031175e-02 5.54304291e-03
      5.39681688e-02 -2.67836422e-01 1.94642946e-01 2.84258187e-01
      1.58522218e-01 2.63869494e-01 1.91976622e-01 1.59388721e-01
      6.38632774e-02 -7.92648569e-02 -2.46353924e-01 -2.87409812e-01
      2.40321811e-02 2.12285459e-01 -1.23836428e-01 -3.22195813e-02
      -6.96111992e-02 8.62863213e-02 -2.82803401e-02 -1.35327071e-01
      -2.28173435e-01 1.14851780e-01 2.87397355e-01 2.02417206e-02
      -1.58130661e-01 -3.60519290e-02 1.80271342e-01 1.18890647e-02
      1.14794951e-02 5.40996306e-02 3.65656406e-01 3.55381221e-01
      5.44833429e-02 -1.15453966e-01 -2.86931992e-01 -2.62265474e-01
      -1.64034680e-01 -1.29899427e-01 -1.68057755e-01 1.51130334e-01
      1.79030433e-01 2.14215070e-01 1.72427595e-01 1.27363438e-02
      7.29566887e-02 1.37716219e-01 5.99542866e-03 2.68353075e-01
      3.27407196e-02 -1.75841689e-01 -6.53641000e-02 -9.29796249e-02
      -3.01287532e-01 -3.88716161e-01 -1.77168727e-01 -6.50408491e-02
      -2.55613089e-01 7.39465207e-02 1.37474213e-03 1.46451473e-01
      2.06353739e-01 6.39530495e-02 4.72661480e-02 -1.08165294e-01
      -1.51492417e-01 -6.76436603e-01 -3.70727390e-01 1.07494466e-01
      2.39716873e-01 2.15970039e-01 2.26302251e-01 3.17101002e-01
      5.57107210e-01 -1.33676276e-01 -6.02003992e-01 -5.85665584e-01
      -4.15336229e-02 1.76319182e-02 9.89759266e-02 3.05245873e-02
      2.46768415e-01 5.22025108e-01 -1.36991411e-01 -6.96194232e-01
      -3.14543277e-01 1.84972674e-01 2.64338434e-01 3.20760429e-01
      2.92712390e-01 5.08636653e-01 3.67981076e-01 -2.50142496e-02
      -6.49646401e-01 -4.23770964e-01 3.03545929e-02 2.53818911e-02
      7.52432123e-02 1.70693144e-01 3.04448932e-01 6.61878288e-01
      1.80193439e-01 -2.02486888e-01 -1.44983649e-01 -1.00481883e-01
      -4.91498202e-01 -2.67282009e-01 -1.93437710e-01 6.25523478e-02
      5.02887428e-01 1.87324226e-01 -5.32349944e-02 -3.98815647e-02
      1.35461628e-01 -3.87073010e-01 -3.22080612e-01 -1.40949160e-01
      1.69974223e-01 2.46038526e-01 2.56323636e-01 1.68793388e-02
      -1.01461381e-01 -1.91135868e-01 -4.64996725e-01 -3.81237298e-01
      -2.02389255e-01 1.28184393e-01 5.60075939e-01 3.49460095e-01
      1.56190082e-01 -1.48065224e-01 -2.61027068e-01 -4.83356357e-01
      -1.24550506e-01 -2.46002540e-01 -1.01556495e-01 3.77615303e-01
      -6.31251559e-02 4.39656191e-02 -6.17061816e-02 -2.63579458e-01
      -2.45428070e-01 -1.02238759e-01 -7.19814226e-02 -1.33298442e-01
      -4.03601885e-01 -3.90771657e-01 -7.80832469e-02 8.90692547e-02
      -4.66977842e-02 -3.33324894e-02 -2.18010433e-02 -2.48242542e-02
      2.21685451e-02 -3.94590944e-01 4.59488161e-04 6.19652234e-02
      5.55063844e-01 4.13341522e-01 -2.32168809e-01 -2.14633361e-01
      -9.91739109e-02 -4.10158150e-02 -1.25197247e-01 1.33997023e-01
      1.96600884e-01 4.21762288e-01 2.49723017e-01 -1.34701297e-01
      -1.25330597e-01 -1.86011508e-01 1.73776858e-02 -2.48848964e-02
      -2.95512438e-01 -3.40198845e-01 2.96665877e-02 5.79076521e-02
      7.11993948e-02 6.39058352e-02 3.27972919e-02 6.20389618e-02
      3.71277668e-02 1.41302859e-02 -2.32685566e-01 4.90369350e-02
      5.80459125e-02 8.01977292e-02 7.22211525e-02 4.86887917e-02
      9.94461216e-03 1.76385045e-01 -4.54674363e-02 1.36342585e-01
      7.32793286e-02 6.19560704e-02 -1.26994625e-02 -3.04667801e-02
      -1.03555173e-01 6.82979822e-02 -1.74896836e-01 -1.02384478e-01
      5.21357767e-02 6.42494187e-02 4.94155064e-02 -4.64545712e-02
      -7.32979132e-03 1.29699573e-01 2.27637097e-01 -4.54674363e-02
      7.15505108e-02 -1.31419003e-01 -1.54361755e-01 -1.47153154e-01
      -7.79706016e-02 -1.26518458e-01 -4.40218970e-02 -1.06370151e-01
      1.84839703e-02 -5.85443713e-02 -4.42365482e-02 -3.10660571e-01
      -2.76057124e-01 -9.00373310e-02 -3.33655588e-02 -7.88965076e-02
      -1.56018376e-01 -2.83405840e-01 8.03757980e-02 -2.53774732e-01
      -7.21459910e-02 5.06437756e-02 -1.96800664e-01 4.90694679e-02
      2.70295441e-01 9.55991745e-02 3.35119702e-02 -2.45177541e-02
      -1.85969666e-01 -8.09758306e-02 1.91450506e-01 1.15834199e-01
      2.43706089e-02 3.01023096e-01 1.05475374e-01 -2.24315133e-02</_>
    <_>
      -1.31817415e-01 1.10366113e-01 1.32848442e-01 2.09255591e-01
      1.47868291e-01 3.81416478e-03 7.52093047e-02 1.46117553e-01
      1.18455151e-02 -3.75652574e-02 1.24244593e-01 4.62720208e-02
      2.29321733e-01 1.78983271e-01 2.90002376e-01 4.46630903e-02
      7.06390738e-02 -1.02071958e-02 -1.11084558e-01 -1.19526766e-01
      -3.64451110e-02 -8.11341628e-02 -1.29804298e-01 -2.12809324e-01
      -7.15458393e-02 -1.34080052e-01 -1.13141447e-01 -1.41808346e-01
      -2.72511601e-01 -1.23872556e-01 2.30073556e-01 -5.64349182e-02
      -1.07058115e-01 -1.09602235e-01 5.25080636e-02 2.27800801e-01
      -7.36172944e-02 2.95747489e-01 6.12090714e-02 2.04014346e-01
      3.36678416e-01 1.64913908e-01 -1.08669460e-01 -1.19775996e-01
      -1.18438102e-01 -7.56140947e-02 2.06008077e-01 -2.12082788e-01
      5.50253652e-02 4.36736494e-02 1.31159917e-01 1.49093950e-02
      -1.69419169e-01 -2.52009094e-01 -9.45569053e-02 -5.93775995e-02
      -9.99172106e-02 3.89692992e-01 1.00326419e-01 -2.53132209e-02
      -1.73847586e-01 -8.53949636e-02 -1.49009943e-01 1.14739321e-01
      2.28750091e-02 -8.45336691e-02 2.73228317e-01 -5.27667962e-02
      4.49590646e-02 -3.23201641e-02 -1.17743805e-01 -1.41320275e-02
      -2.86255032e-01 -1.62149802e-01 -1.00397326e-01 -1.09153008e-02
      -1.71886027e-01 2.22641841e-01 1.20992534e-01 3.08916508e-03
      -5.46714127e-01 -1.08614676e-01 2.75538713e-01 2.03734502e-01
      2.31752768e-01 3.48243535e-01 1.51978955e-01 4.99612056e-02
      -5.98351061e-02 -2.66434222e-01 2.06331581e-01 -7.28637725e-02
      -3.43186677e-01 -1.58506095e-01 -1.55651376e-01 1.76457107e-01
      -2.30731089e-02 -6.49404377e-02 9.50417817e-02 2.09732056e-01
      1.30775437e-01 4.90709627e-03 2.91415043e-02 -1.10299423e-01
      -2.17935532e-01 -1.71422824e-01 -5.69962077e-02 2.53969848e-01
      1.30477428e-01 -1.09291844e-01 5.08358292e-02 -6.62354287e-03
      7.83741008e-03 -2.95181543e-01 -2.84340531e-02 6.92847148e-02
      1.38336048e-01 -6.73768520e-02 -2.57792234e-01 -2.12610245e-01
      -1.90383401e-02 4.34956066e-02 -8.98946002e-02 3.25266749e-01
      4.38043535e-01 4.52935576e-01 -1.44056290e-01 2.56900117e-02
      1.77794591e-01 2.58720756e-01 3.57309431e-02 -3.88699263e-01
      -4.47180331e-01 -2.62842864e-01 -2.35938504e-01 9.03007202e-03
      -3.58749956e-01 -4.79855388e-01 -1.88266963e-01 4.95931990e-02
      -1.16800815e-01 5.79488017e-02 1.63525894e-01 1.00302279e-01
      1.76002577e-01 -7.35099241e-02 -2.30831385e-01 -2.46289000e-01
      -2.93250173e-01 -3.74774367e-01 -1.69900954e-01 -5.51284254e-02
      3.56284350e-01 3.04444909e-01 2.03304887e-01 1.50954798e-01
      1.42710626e-01 -2.20102742e-01 -3.79141867e-01 -4.52606440e-01
      -3.15338492e-01 7.45982677e-02 4.01539475e-01 -2.07097381e-01
      -3.22806329e-01 -1.35129914e-01 -3.67883772e-01 -4.78913903e-01
      -5.21012366e-01 -7.55636618e-02 5.74052095e-01 3.03587794e-01
      2.80366093e-01 3.56449187e-01 2.13615686e-01 -2.12470710e-01
      -4.51490104e-01 -7.10446000e-01 -4.31372434e-01 2.17483938e-01
      3.33892614e-01 -7.48732612e-02 -3.02974015e-01 -3.09069306e-01
      -2.07902282e-01 -8.77615362e-02 -8.55936259e-02 -1.17577165e-01
      2.17951223e-01 4.67746019e-01 7.04896823e-02 -3.87896031e-01
      -4.68399495e-01 -4.66850311e-01 -1.93121821e-01 2.92553902e-02
      2.70738453e-01 6.13924325e-01 -2.40942091e-01 -3.18054378e-01
      -1.94484338e-01 -6.71074688e-02 -5.10669872e-02 -1.38173059e-01
      -1.57621235e-01 -1.55203324e-02 -1.52449133e-02 2.82477945e-01
      -2.65121483e-03 -5.95819116e-01 -3.84546459e-01 -8.15919042e-02
      2.31370807e-01 4.16622669e-01 7.91587532e-01 8.12552810e-01
      -7.32062608e-02 2.69806892e-01 2.82183081e-01 1.45560205e-01
      -5.64379655e-02 -2.63794512e-01 -3.33504468e-01 -1.41216055e-01
      -1.17526352e-01 -3.34484667e-01 1.58312902e-01 2.30124265e-01
      2.25901790e-02 -1.97600480e-03 -8.51947665e-02 -3.33193205e-02
      1.98215082e-01 3.35247442e-02 6.27861619e-02 -5.93099780e-02
      -6.98115602e-02 -3.74889486e-02 -2.11657941e-01 -5.85554354e-02
      -8.24092552e-02 1.74760044e-01 -2.44440228e-01 -1.67216435e-01
      1.79080412e-01 1.49888515e-01 2.68171817e-01 1.46884009e-01
      3.34062427e-01 2.31728911e-01 2.03456029e-01 -5.11528432e-01
      1.95069965e-02 1.03931881e-01 1.15905479e-01 3.19521539e-02
      3.59437838e-02 -2.90015079e-02 -7.58125037e-02 1.50717916e-02
      2.04656467e-01 2.60761827e-01 2.60958225e-01 3.23668480e-01
      1.22312203e-01 9.15673748e-02 3.74698229e-02 -1.15923122e-01
      -1.72973305e-01 1.08288145e-02 -2.54547238e-01 4.52186376e-01
      1.67660415e-01 2.03736767e-01 1.91254064e-01 1.02893494e-01
      1.25695527e-01 1.07047364e-01 -4.66065407e-01 -3.05102348e-01
      4.76482838e-01 2.74171472e-01 4.21611108e-02 7.23156780e-02
      9.38859303e-03 -1.78948678e-02 2.61266790e-02 -2.54547238e-01
      -8.75093639e-02 -1.60834581e-01 6.57721385e-02 4.50746976e-02
      1.53125599e-01 1.69520840e-01 1.28861338e-01 3.45582739e-02
      -1.87565595e-01 2.28294525e-02 -9.74480808e-02 -2.69188732e-01
      6.69267550e-02 9.67832059e-02 2.32586458e-01 2.66604364e-01
      4.88667488e-01 3.71622354e-01 -2.00195119e-01 -2.03835845e-01
      -2.52827443e-02 -4.31140400e-02 -7.67783672e-02 6.07004613e-02
      -2.11214095e-01 -1.20383024e-01 -1.96053341e-01 -2.51547903e-01
      -4.54545319e-01 6.16546981e-02 6.94572031e-01 2.30153874e-01
      1.25476643e-01 -5.41384853e-02 2.91876733e-01 1.10832155e-01</_>
    <_>
      7.93359354e-02 2.75901228e-01 4.19961095e-01 -2.49452069e-02
      -8.65401328e-02 -2.34613586e-02 -1.77453786e-01 -4.68900148e-03
      -1.40038878e-01 2.26874650e-01 -8.65127742e-02 1.16124801e-01
      3.87612134e-02 -9.15338751e-03 7.70015717e-02 -1.07705072e-02
      9.86092985e-02 -1.35431692e-01 4.51622851e-04 -1.84136316e-01
      6.75771832e-01 7.92117536e-01 -3.54558714e-02 -4.10977811e-01
      5.88582270e-03 6.43436089e-02 -2.73430169e-01 -9.16540772e-02
      -7.98170745e-01 -2.69969791e-01 3.17608595e-01 2.22508579e-01
      1.01271212e-01 9.61789489e-02 5.74092329e-01 4.37917769e-01
      1.12536252e-01 -1.83748379e-01 -2.55622000e-01 1.43443152e-01
      2.06014127e-01 2.32041199e-02 -7.99728036e-02 -2.92837620e-02
      1.82762623e-01 1.39542297e-01 1.51157588e-01 -8.58356208e-02
      -3.94437974e-03 -3.34452689e-01 -2.89592236e-01 -1.45554096e-01
      -1.29265860e-01 3.35673392e-01 3.49662825e-02 -8.72619927e-01
      -4.14749235e-01 2.59142786e-01 4.12360907e-01 2.72611678e-01
      1.66221187e-01 3.07311386e-01 6.96514249e-01 -5.49939610e-02
      -5.10997951e-01 -1.21880002e-01 -4.81504016e-02 -3.91969949e-01
      -1.20777257e-01 -4.56034914e-02 -2.57235795e-01 5.72420120e-01
      2.27696329e-01 4.96095002e-01 7.91080669e-02 -2.18917444e-01
      -7.70577788e-01 -6.77410781e-01 -1.54711232e-01 -7.41679296e-02
      -9.84244943e-02 9.14791077e-02 2.66063839e-01 2.36337855e-01
      2.07326740e-01 5.12148924e-02 5.07873343e-03 3.00561965e-01
      3.76831219e-02 -1.11083306e-01 2.98768103e-01 2.38565415e-01
      1.67118043e-01 -5.99328578e-01 -1.01328778e+00 -4.14789826e-01
      -2.13099763e-01 2.31634170e-01 6.98655307e-01 1.24713585e-01
      -5.59763491e-01 -3.14169943e-01 -4.76225615e-02 -3.68048608e-01
      -1.90246284e-01 4.74834032e-02 1.52594194e-01 3.01649898e-01
      1.56036615e-01 -5.82373679e-01 2.48708427e-01 6.37439072e-01
      4.38879311e-01 -6.06082007e-03 2.61631340e-01 3.61236274e-01
      4.94658947e-01 -5.61581738e-02 -3.83482665e-01 -5.55460453e-02
      3.99173170e-01 7.70299792e-01 2.46379808e-01 1.14566818e-01
      7.55375564e-01 1.55105025e-01 -1.90858945e-01 -5.92804313e-01
      -5.89973748e-01 -5.27974784e-01 -2.13042930e-01 -3.70650530e-01
      -1.98025778e-01 -1.89330548e-01 -3.17352712e-01 9.31010172e-02
      -1.02383509e-01 2.64694750e-01 -1.45097435e-01 2.08184287e-01
      9.44718942e-02 -2.98799518e-02 4.34565812e-01 -2.85669208e-01
      -2.71304492e-02 -8.10841620e-01 -5.70880771e-01 4.81862985e-02
      6.25907779e-01 3.17012280e-01 1.70951396e-01 2.70599335e-01
      -1.16140455e-01 -3.09354365e-01 -8.60743105e-01 -4.40228492e-01
      -1.97599098e-01 -1.07136858e-03 -2.12960280e-02 -1.15062982e-01
      -1.39324437e-03 1.83748305e-01 1.65284127e-01 -2.99997658e-01
      3.05981427e-01 2.93983310e-01 1.76697075e-01 7.07516260e-03
      -1.75143987e-01 2.83257738e-02 2.47433767e-01 1.30151466e-01
      -3.52461129e-01 -1.37606245e-02 2.03037545e-01 2.87856013e-02
      -2.15171337e-01 -2.46085823e-01 9.04306024e-02 2.76673764e-01
      8.39699581e-02 -1.81269541e-01 -6.03504363e-04 -4.46184099e-01
      -4.64155793e-01 -4.81336623e-01 -5.15826464e-01 -2.37082809e-01
      3.19123924e-01 2.69665658e-01 -2.66831845e-01 -3.84865940e-01
      -2.58477837e-01 -1.29675001e-01 1.65267587e-01 -2.41000712e-01
      4.78863232e-02 5.11050105e-01 -7.71500319e-02 -1.30520076e-01
      1.17109232e-01 -2.33989909e-01 -2.84734130e-01 -1.58323914e-01
      -2.79152811e-01 -6.18439503e-02 6.95040673e-02 4.76137012e-01
      1.19922146e-01 4.26563099e-02 -7.10007027e-02 -1.66223943e-01
      -2.82380395e-02 7.55741522e-02 2.44253390e-02 4.88755763e-01
      -5.72418869e-01 9.65283811e-02 1.04644202e-01 -1.49920300e-01
      -4.05852199e-02 -5.14389277e-02 -1.61251023e-01 -3.79728258e-01
      -6.33243203e-01 -7.39862978e-01 2.57610530e-01 4.26509231e-01
      -3.29459906e-02 2.28656027e-02 2.85810471e-01 4.83975634e-02
      5.41833788e-02 -3.11911166e-01 -1.62153721e-01 1.57064438e-01
      3.54959875e-01 8.84312168e-02 1.53320298e-01 1.19070455e-01
      -2.48312112e-02 -1.64211556e-01 -2.69480169e-01 6.21811487e-02
      2.37496957e-01 3.29749405e-01 8.36746544e-02 1.42167732e-01
      2.86327302e-01 7.47508928e-02 1.99466825e-01 -2.20468506e-01
      -4.13104892e-01 -8.88921842e-02 1.03388600e-01 -4.74838950e-02
      -5.12072332e-02 -7.26708993e-02 -1.79386392e-01 -1.35656819e-01
      -1.30639166e-01 2.21208200e-01 -8.75447467e-02 2.75541749e-02
      -2.89278906e-02 -1.23877108e-01 -2.62497097e-01 -3.23234588e-01
      -3.99277538e-01 2.80414224e-01 4.06449614e-03 3.16626459e-01
      -1.03708319e-01 -1.24428935e-01 -6.72780648e-02 2.77447272e-02
      -4.61730175e-02 6.94350079e-02 -6.55617863e-02 8.87166336e-02
      9.43219066e-02 -4.06792015e-02 -2.84933932e-02 1.21508660e-02
      -9.87856537e-02 -4.02202224e-03 -5.01143932e-02 -9.13291331e-03
      5.52588180e-02 -3.82985383e-01 -1.09228723e-01 -1.86384186e-01
      -1.16602428e-01 -3.79289426e-02 -2.06854224e-01 -3.50735515e-01
      1.76669359e-01 -2.11137027e-01 -1.41922891e-01 4.87093478e-02
      3.86271216e-02 -2.14772165e-01 -1.91360235e-01 -2.03123055e-02
      -2.09818453e-01 2.41214857e-01 1.72581017e-01 -1.31382316e-01
      -2.04151377e-01 -2.31329799e-01 -1.93295464e-01 2.03632936e-01
      -6.21086210e-02 1.31175935e-01 -5.53476028e-02 -3.50617558e-01
      -3.36713672e-01 2.26976320e-01 3.35118085e-01 8.55473578e-02
      7.52495527e-02 9.25649628e-02 3.01004555e-02 1.35294780e-01</_>
    <_>
      -7.81885758e-02 -6.25494793e-02 6.76009208e-02 2.09698111e-01
      2.90049881e-01 6.94217160e-02 1.75724164e-01 2.09499151e-01
      6.64506108e-02 1.17469668e-01 -5.11693954e-03 -2.41442807e-02
      2.57758558e-01 2.00283989e-01 1.55401736e-01 7.93352351e-02
      1.82623595e-01 1.11457959e-01 -6.25552237e-01 -2.20910966e-01
      -9.77833103e-03 7.42220730e-02 -2.44736169e-02 -8.68330300e-02
      8.06805491e-02 -5.89940883e-02 -4.26001817e-01 -5.40750921e-01
      -3.24745536e-01 5.31282835e-02 4.47380871e-01 5.14702946e-02
      -7.84503818e-02 -6.24600835e-02 -2.20639765e-01 -2.39075974e-01
      1.58112571e-01 1.43890440e-01 1.45320660e-02 9.57062691e-02
      1.21323489e-01 -2.61097495e-03 -1.58338174e-01 -1.58322267e-02
      8.82211849e-02 1.32204875e-01 2.44573116e-01 1.33191288e-01
      -1.32700126e-03 -2.02398859e-02 -3.71589214e-02 -9.91100445e-02
      -1.25101432e-01 -1.09188735e-01 -2.03364655e-01 2.18149051e-02
      2.66302377e-02 1.46818325e-01 -1.18797928e-01 -3.20732802e-01
      -1.92702889e-01 -5.01927920e-02 -1.96273521e-01 1.05996326e-01
      1.56157203e-02 2.76264665e-03 -1.88195229e-01 -2.66861498e-01
      -3.96201164e-01 -1.38321474e-01 1.19041435e-01 2.30581388e-01
      -1.62019268e-01 -1.07704423e-01 1.11463800e-01 1.17723256e-01
      9.96061862e-02 2.80314803e-01 1.16121709e-01 -7.83315953e-03
      -2.22449422e-01 -1.64451748e-01 3.58580798e-02 -2.66371798e-02
      9.18779075e-02 1.88776419e-01 3.02466720e-01 2.04558447e-01
      -2.78542191e-02 -2.67589718e-01 1.06523879e-01 2.34632064e-02
      -3.45661640e-02 -1.21678472e-01 -1.17504492e-01 9.10871997e-02
      -1.01213716e-02 1.11655325e-01 1.86619580e-01 6.96594268e-02
      2.18604151e-02 -5.39402962e-02 -2.58976877e-01 -2.11566731e-01
      -1.28518343e-01 -8.07892065e-03 -5.94321282e-05 -9.18946974e-03
      -1.75567940e-01 9.60587896e-03 5.85493483e-02 -4.26451229e-02
      -3.58529128e-02 -2.10160941e-01 1.98430598e-01 1.89242706e-01
      1.40310317e-01 -1.19929723e-01 1.82015598e-01 2.51824677e-01
      2.95975417e-01 -9.33343451e-03 -7.74830058e-02 1.54180735e-01
      2.73828525e-02 -5.80056384e-03 -1.71384275e-01 -2.30828393e-02
      -1.21260665e-01 -4.12393600e-01 -4.36488211e-01 -3.11760247e-01
      1.89637408e-01 2.05189988e-01 7.10137263e-02 1.91756383e-01
      2.77943939e-01 9.81432498e-02 -2.04917163e-01 -3.67035508e-01
      -4.20233160e-01 -4.96539026e-02 1.75568551e-01 2.10202396e-01
      1.60379678e-01 3.83417606e-01 1.34196058e-01 -4.98600723e-03
      -2.49873757e-01 -3.89959216e-01 -2.16481492e-01 4.11726162e-02
      2.51258165e-01 3.05826157e-01 3.14927816e-01 2.72064209e-02
      -1.95580274e-01 -1.92396522e-01 -4.23964083e-01 -2.84125119e-01
      1.50258178e-02 2.74644256e-01 5.29327273e-01 3.83295715e-01
      1.73469126e-01 6.03373237e-02 -1.91994026e-01 -6.07707858e-01
      -3.82786721e-01 -1.15105227e-01 3.72612149e-01 1.22903585e-01
      2.24206001e-01 2.16317907e-01 1.87305674e-01 1.40959889e-01
      -1.56623766e-01 -4.49401259e-01 -2.21832171e-01 1.14852384e-01
      1.26359537e-01 5.75120039e-02 -7.07004443e-02 -3.30779880e-01
      -1.60513490e-01 -3.47228497e-02 -6.14655465e-02 7.10304752e-02
      2.31172740e-01 1.67642206e-01 4.23636101e-02 -2.87703782e-01
      -5.02325475e-01 -2.61551857e-01 -1.21157914e-01 4.55353074e-02
      2.17901930e-01 3.25927585e-01 -2.18853373e-02 -1.11673646e-01
      1.00268602e-01 1.41324013e-01 1.78025544e-01 5.26366681e-02
      2.13494152e-02 -9.98346880e-02 -5.56094050e-02 1.77946135e-01
      -6.14959858e-02 -1.86548397e-01 7.43340105e-02 1.62085086e-01
      1.83717594e-01 2.88488626e-01 4.52957600e-01 3.29892695e-01
      -2.14393929e-01 -3.08341924e-02 -3.63216512e-02 -7.17286915e-02
      -1.64328620e-01 -6.37169406e-02 1.03834569e-02 -7.42504224e-02
      -8.89958516e-02 -5.70887700e-02 1.96077511e-01 1.28359601e-01
      -5.86395897e-03 -7.51042739e-02 -1.99711353e-01 -1.56344883e-02
      -4.61445153e-02 2.40018945e-02 -6.51189685e-02 -1.83802128e-01
      -2.45968029e-01 8.71852636e-02 -4.37974837e-03 2.60673482e-02
      -2.21493766e-02 6.64116442e-02 -1.02940895e-01 -4.84854076e-03
      -7.59948269e-02 -7.12195337e-02 9.50005352e-02 6.92393854e-02
      1.99720800e-01 2.34147280e-01 -1.80527158e-02 -1.93913683e-01
      2.01948673e-01 1.50538638e-01 1.10572524e-01 6.17163852e-02
      3.47753763e-02 -1.08817108e-01 -7.15701580e-02 -1.61135912e-01
      9.23015922e-02 8.53068605e-02 1.11768313e-01 2.63857901e-01
      2.08400726e-01 1.62574872e-01 7.00420961e-02 1.92609336e-02
      -2.14032426e-01 -3.98042612e-02 -1.61387533e-01 2.24191230e-02
      3.82966548e-02 1.35354027e-01 1.33442938e-01 5.15928119e-02
      1.05741143e-01 -2.82589532e-02 1.58031225e-01 -1.91472188e-01
      5.55239245e-02 1.76395908e-01 6.01088628e-02 6.62775561e-02
      -6.30727597e-03 2.16501635e-02 -4.49474566e-02 -1.61387533e-01
      -1.26216695e-01 -1.89472601e-01 1.62891403e-01 2.61603057e-01
      1.89316660e-01 8.61522928e-02 1.38856992e-01 -2.26181187e-02
      -1.61651775e-01 9.33103710e-02 -2.23448426e-01 -9.18932110e-02
      1.64111763e-01 1.13893107e-01 2.05698702e-02 7.73286894e-02
      1.58709928e-01 1.02732226e-01 -1.51412815e-01 -2.22333558e-02
      8.13771114e-02 8.46670270e-02 -8.21979120e-02 -6.72622323e-02
      6.74909949e-02 3.28892693e-02 -8.55994374e-02 -9.18999538e-02
      2.08209502e-03 9.62169990e-02 2.92351097e-01 5.03997691e-02
      -6.83314502e-02 1.08220190e-01 4.44944538e-02 9.38710570e-02</_>
    <_>
      2.83716023e-01 2.08630517e-01 1.87636942e-01 9.97089297e-02
      1.09448768e-01 9.57664922e-02 -2.25721821e-02 -9.85448286e-02
      6.95579275e-02 8.19620267e-02 1.03974782e-01 9.62207317e-02
      1.09747700e-01 1.71575382e-01 1.01420164e-01 3.70712280e-02
      -3.10371935e-01 -9.18287635e-02 -1.95814103e-01 -1.70133635e-01
      2.28328660e-01 3.63974243e-01 8.95830765e-02 7.33495727e-02
      1.49334664e-03 2.85703856e-02 -2.14142337e-01 -9.35673341e-02
      -1.36253899e-02 1.31664962e-01 2.39062369e-01 1.03158593e-01
      9.40930098e-02 -1.93338335e-01 -1.49745271e-01 -1.14753440e-01
      5.07860109e-02 1.31175607e-01 3.91107947e-02 5.48273101e-02
      1.01535037e-01 5.56267537e-02 1.80627797e-02 -2.63135247e-02
      9.02736932e-02 9.25630853e-02 2.18293816e-01 5.94311394e-02
      3.89755331e-02 4.67459857e-02 1.05567910e-02 8.08712561e-04
      4.35817316e-02 3.51703353e-02 1.63117647e-02 -2.11398184e-01
      -1.88196544e-02 8.24290738e-02 5.36255538e-02 5.04828133e-02
      -2.13759452e-01 -2.27650061e-01 -5.15189953e-02 -6.21805945e-03
      -3.06684077e-01 -2.43346661e-01 3.63701694e-02 7.47167319e-03
      7.11108325e-03 -4.06187773e-02 -6.63859537e-03 -1.97436213e-02
      2.71733813e-02 1.90853551e-01 1.86331525e-01 8.41497332e-02
      1.04541697e-01 4.57777679e-02 3.61994356e-02 4.56614606e-02
      -4.18038853e-02 -1.09624878e-01 4.40552533e-02 2.22918734e-01
      1.20475501e-01 1.49007499e-01 9.23467651e-02 7.89594725e-02
      3.07327025e-02 -4.30505462e-02 -1.19241647e-01 -5.52198961e-02
      -3.59776095e-02 1.40762597e-01 5.76905906e-02 4.22369055e-02
      4.25920188e-02 1.12405695e-01 -1.16635956e-01 -1.10316515e-01
      6.79973438e-02 8.84225816e-02 1.38069287e-01 1.07876837e-01
      1.00448504e-01 -7.74456114e-02 -1.68935061e-01 -1.65785968e-01
      -2.47223660e-01 -9.52994451e-02 1.22987382e-01 3.09994966e-01
      6.87593967e-02 7.33289719e-02 4.25747409e-03 2.43009534e-02
      -2.13353902e-01 2.41306312e-02 5.17277941e-02 7.33104199e-02
      1.62087575e-01 2.19351202e-02 9.69283506e-02 -1.45072252e-01
      -3.82204242e-02 -1.29727796e-02 -2.93409675e-02 6.81866780e-02
      -3.44902612e-02 5.77710420e-02 1.91613752e-02 5.17276004e-02
      -1.08132720e-01 -8.50048065e-02 -4.29815762e-02 2.41306312e-02
      -1.41377926e-01 -8.18746537e-02 4.43727076e-02 -2.61824466e-02
      7.02640489e-02 -2.41473205e-02 1.30495384e-01 2.41306312e-02
      1.51607051e-01 -1.92640707e-01 -6.47572130e-02 3.96537594e-02
      -9.38340500e-02 2.15199087e-02 -2.91017681e-01 -1.82108372e-01
      1.41194046e-01 1.25857487e-01 -3.10682267e-01 -2.15522811e-01
      -1.45221250e-02 -1.21512577e-01 -4.51231226e-02 -1.95859849e-01
      -6.22913055e-02 1.58288866e-01 1.62667543e-01 -2.62841612e-01
      -1.60167262e-01 3.72261330e-02 -1.04622647e-01 2.05989107e-02
      -1.94944829e-01 -5.36216125e-02 1.77113503e-01 1.62667543e-01
      -8.72712433e-02 -2.67196968e-02 3.97095084e-03 -1.19951941e-01
      -3.65334079e-02 -4.39644933e-01 -3.78756166e-01 1.58944309e-01
      -1.17865903e-02 -1.48378253e-01 -1.04670450e-01 6.04514591e-02
      -2.28454303e-02 -1.59073137e-02 -8.78215954e-02 2.20073164e-02
      4.42404188e-02 3.03075160e-03 -3.18794809e-02 -7.66081037e-03
      7.94742778e-02 2.37517375e-02 4.22103778e-02 -1.50659531e-01
      -1.26546070e-01 4.29854216e-03 3.69624160e-02 4.27807420e-02
      5.06566139e-03 1.53820748e-02 -3.38920392e-02 -1.47637157e-02
      -1.92444772e-01 -1.80673704e-01 2.62682922e-02 1.46502638e-02
      -8.38952586e-02 -6.38958141e-02 5.31220138e-02 -4.97374777e-03
      1.61375180e-02 -4.33285721e-02 8.14073607e-02 1.08880438e-02
      -1.59387484e-01 9.83049348e-02 3.51360627e-02 8.48127529e-03
      2.06749793e-02 3.88896652e-02 -1.05045170e-01 -1.38421044e-01
      -1.97813317e-01 -6.70249015e-02 -2.93388546e-01 -1.28274113e-01
      1.70048606e-02 2.46081967e-03 2.17814669e-02 2.99754608e-02
      1.10929653e-01 -8.69516954e-02 -6.98364154e-02 -3.20924260e-02
      2.61431783e-01 1.39827654e-01 1.20335095e-01 5.95698431e-02
      4.60793562e-02 6.13517463e-02 1.02850301e-02 5.32942675e-02
      1.04778789e-01 2.24545419e-01 7.84762725e-02 9.61255804e-02
      2.70905569e-02 4.84460816e-02 1.09085672e-01 -7.96815306e-02
      -3.51106077e-02 -3.89867306e-01 -1.78191423e-01 2.73961108e-02
      -7.38576939e-03 3.03921802e-03 -9.30317417e-02 -1.01131462e-01
      -9.57722217e-03 -1.12439152e-02 -4.54739258e-02 1.45330792e-02
      3.39420736e-02 6.26685563e-03 1.54464794e-02 -2.98229277e-01
      -4.80787158e-01 -4.22841916e-03 6.26899227e-02 1.17690817e-01
      2.84275990e-02 3.64408344e-02 8.13908428e-02 2.92392205e-02
      7.70796165e-02 1.06421039e-01 4.99332771e-02 -3.86816189e-02
      5.15773296e-02 2.91707590e-02 5.09607568e-02 1.13009669e-01
      9.16673243e-02 1.76798359e-01 2.09188625e-01 6.26899227e-02
      -5.61194681e-02 6.62019476e-02 6.58429861e-02 4.97257337e-02
      4.27033491e-02 6.32509142e-02 -4.82128523e-02 -1.24888286e-01
      -5.95236123e-02 -1.84181780e-01 -7.81635046e-02 -4.37264182e-02
      6.66859001e-02 4.26770002e-02 8.23854432e-02 7.37257227e-02
      1.22824721e-01 -1.39902934e-01 -1.01725191e-01 9.93520394e-02
      1.39413491e-01 1.24328911e-01 2.29640678e-01 2.54505217e-01
      2.69859642e-01 2.24473521e-01 -9.15036201e-02 -2.37897381e-01
      6.94721192e-02 1.64660320e-01 1.74132347e-01 2.45667547e-01
      2.69853771e-01 2.17698976e-01 -2.77737738e-03 -1.62972257e-01</_>
    <_>
      7.48698860e-02 -5.17278025e-03 4.11108918e-02 6.95829242e-02
      1.41061889e-02 -3.02928519e-02 -8.72022584e-02 -9.44330767e-02
      -8.77793655e-02 -7.60048851e-02 -9.39755738e-02 2.10481640e-02
      3.15828100e-02 2.05710554e-03 1.23411519e-02 1.42812135e-03
      -1.34245664e-01 -7.90647119e-02 1.52426958e-01 1.92544721e-02
      -5.68199642e-02 -7.11517632e-02 -8.37939754e-02 7.57597387e-02
      1.80984035e-01 2.21378192e-01 2.09309950e-01 -2.07338687e-02
      -6.43488243e-02 -1.40787646e-01 -9.85577628e-02 -1.12532020e-01
      4.37354445e-02 1.23741589e-01 2.23690972e-01 1.35685742e-01
      -1.40905216e-01 4.58145924e-02 2.82074660e-02 6.39918447e-02
      7.05232471e-02 4.51236963e-02 9.44410264e-02 -6.62254244e-02
      -1.48064926e-01 -1.48064926e-01 1.47922441e-01 4.22609709e-02
      1.15425205e-02 4.69938889e-02 1.65787768e-02 8.68824571e-02
      7.40438048e-03 -1.93439707e-01 4.56361324e-02 2.13516980e-01
      5.21601923e-02 -6.63526431e-02 -9.41179171e-02 -1.37174547e-01
      -7.05466270e-02 -6.63674399e-02 -1.20753251e-01 3.95341933e-01
      5.46839476e-01 2.00976819e-01 -7.15561137e-02 -2.17572778e-01
      -2.44356215e-01 -1.36779681e-01 -9.18819979e-02 6.73191622e-02
      -6.37687743e-02 7.98224062e-02 3.19974720e-02 -4.96281646e-02
      -4.89170849e-02 -1.53649179e-02 3.24780829e-02 -2.94440109e-02
      -1.32143930e-01 -1.34932369e-01 1.70787808e-03 -1.38783660e-02
      8.81359428e-02 1.58563920e-03 6.56692907e-02 2.79968157e-02
      -1.33989722e-01 -2.91768461e-01 3.54922533e-01 2.67796159e-01
      -9.40670222e-02 -1.99356899e-01 -1.26577839e-01 -1.22820228e-01
      -4.58645225e-02 1.58996552e-01 2.91682303e-01 1.13753535e-01
      1.01670086e-01 -1.48334920e-01 -1.30956143e-01 -1.20439716e-01
      -1.08007811e-01 8.79127905e-03 -2.10595271e-03 3.15064006e-02
      1.01446070e-01 -3.15136388e-02 -2.96500754e-02 6.49062544e-03
      -7.70163760e-02 -2.41088718e-02 1.23053961e-01 4.65433635e-02
      1.02830559e-01 3.20431143e-02 -4.13682945e-02 -1.44429624e-01
      -1.39442533e-01 -1.33453652e-01 -4.92487960e-02 7.37674385e-02
      1.68218553e-01 2.15933174e-01 1.29297227e-01 -1.51810110e-01
      8.31249654e-02 1.52687684e-01 -1.18733250e-01 -9.26935077e-02
      -5.73058948e-02 -9.82823893e-02 1.13379896e-01 4.02372703e-02
      -2.30460856e-02 -1.64772838e-01 -9.07858834e-02 -4.42232862e-02
      -7.41496980e-02 -9.73650962e-02 1.35965245e-02 1.31974071e-01
      1.96557462e-01 2.84517705e-01 1.45677432e-01 -1.65308461e-01
      -2.91255623e-01 -3.89132112e-01 -2.77776480e-01 -2.11903900e-01
      -4.40611765e-02 3.89714956e-01 5.11432707e-01 3.15918952e-01
      -7.45112374e-02 -3.18985969e-01 -4.27541316e-01 -2.72698909e-01
      -2.67235786e-01 2.27313135e-02 2.92993575e-01 2.95064807e-01
      1.12060748e-01 -1.50741398e-01 -2.21651033e-01 -4.04533833e-01
      -5.05339086e-01 -3.63892764e-01 4.76691239e-02 7.41892904e-02
      4.58851278e-01 2.86355376e-01 2.17914628e-03 -1.04377382e-01
      -3.15429002e-01 -4.48764741e-01 -3.43909591e-01 -2.22763494e-01
      2.40089282e-01 1.34591863e-01 -8.98589119e-02 -1.44475233e-02
      4.76749912e-02 -5.94085269e-02 -4.36904235e-03 1.02659322e-01
      1.43990874e-01 1.47468343e-01 -8.95906091e-02 -2.42107674e-01
      -1.66248336e-01 -1.06841557e-01 -1.33070379e-01 4.80655171e-02
      1.12724863e-01 1.76505104e-01 -1.60403520e-01 -6.45859987e-02
      -4.78321798e-02 7.77306855e-02 2.26455763e-01 1.21330857e-01
      4.47604321e-02 -1.62786227e-02 -1.02728367e-01 -7.27529079e-02
      -1.58301786e-01 -2.43173897e-01 -1.44268304e-01 1.39995769e-01
      5.62166423e-02 2.07334891e-01 1.67487413e-01 9.52776298e-02
      1.68549076e-01 8.67528915e-02 1.65218949e-01 1.88206017e-01
      9.73217189e-02 -1.74604021e-02 -1.15687162e-01 -4.85847034e-02
      1.91186085e-01 2.05794781e-01 7.21947243e-03 -1.63269341e-02
      4.51414138e-02 7.24681467e-02 3.46096046e-02 -1.79626197e-02
      6.11511469e-02 2.36979872e-01 -9.28522870e-02 1.02944737e-02
      -2.04335883e-01 -1.00673892e-01 8.65221620e-02 9.75033715e-02
      8.12435150e-02 1.12074718e-01 -2.14827865e-01 -1.07103899e-01
      2.22890511e-01 -1.56188115e-01 -4.33768481e-02 1.67454839e-01
      9.07904059e-02 1.09465517e-01 1.58389628e-01 -4.98959497e-02
      2.46657535e-01 2.76552141e-01 1.43594276e-02 1.57879218e-02
      2.12523565e-02 -5.23511544e-02 -1.26189500e-01 -1.30233645e-01
      3.78828170e-03 3.71434377e-03 1.62961081e-01 6.77996352e-02
      5.11069372e-02 4.79405820e-02 -2.19148602e-02 -1.39878497e-01
      -1.69181228e-01 -1.92787111e-01 -4.61972766e-02 6.16151914e-02
      -2.91639920e-02 1.50972018e-02 6.55316487e-02 3.23269777e-02
      4.94871102e-02 -4.28202562e-02 -4.61972766e-02 -2.45309118e-02
      2.02363487e-02 2.89827250e-02 2.86438838e-02 1.14201002e-01
      4.31673825e-02 7.85817131e-02 -1.95717011e-02 -4.61972766e-02
      -1.98302403e-01 -5.54302335e-02 3.31460573e-02 7.61683062e-02
      1.83239222e-01 1.48590535e-01 1.37062669e-01 1.45556644e-01
      -6.69502690e-02 -2.43191943e-02 -1.27075583e-01 -2.36396804e-01
      1.22919334e-02 9.00050625e-02 1.35795832e-01 2.06361920e-01
      2.48974428e-01 1.91804230e-01 -6.84921443e-02 -2.99895052e-02
      -1.51815650e-03 -2.94161011e-02 1.44881085e-01 7.38991005e-03
      3.11235655e-02 5.77723831e-02 -4.09727618e-02 -8.87486935e-02
      -5.61539792e-02 -2.68640630e-02 3.39596299e-03 5.86803481e-02
      -2.42043729e-03 3.42051238e-02 1.51599124e-01 -2.60057766e-02</_>
    <_>
      2.92417184e-02 1.12563714e-01 -1.53738201e-01 -2.71209538e-01
      4.81392980e-01 -3.15532595e-01 -3.77244592e-01 -3.00935239e-01
      7.44768279e-03 -6.46447018e-02 -6.50311708e-02 -2.47144490e-01
      2.12060243e-01 -2.88167179e-01 -2.76352376e-01 -6.92481577e-01
      -5.45625806e-01 -3.41505297e-02 1.75501496e-01 -1.67900398e-01
      1.44493818e-01 2.81201340e-02 7.60551870e-01 -5.10293245e-01
      -2.68935412e-01 5.11634111e-01 5.52634120e-01 -4.27439749e-01
      -3.30417752e-01 -4.30756480e-01 4.60300334e-02 2.25888044e-02
      1.76259696e-01 1.96403489e-02 7.84527361e-01 1.02750540e-01
      7.99455568e-02 -1.02304496e-01 -3.86402190e-01 6.08381517e-02
      1.91138387e-01 4.37007435e-02 -9.25249830e-02 -2.31206968e-01
      -3.68900932e-02 -5.39481193e-02 -1.96042821e-01 -3.79928917e-01
      -1.09180577e-01 -3.63284373e-03 -2.58675683e-02 7.78914616e-02
      -1.95630461e-01 -1.31142974e-01 -6.27548024e-02 -5.34238964e-02
      -9.60913524e-02 1.69443771e-01 2.14720249e-01 4.92238961e-02
      1.65357098e-01 1.80816025e-01 2.63730109e-01 2.72235960e-01
      -1.16289176e-01 2.44987726e-01 -4.49555777e-02 -1.34357259e-01
      -2.59340972e-01 2.88320128e-02 5.62829599e-02 2.52977341e-01
      2.98088696e-02 1.94883764e-01 -9.13773999e-02 -2.06122994e-01
      -7.51880646e-01 -1.42122611e-01 -1.43355101e-01 -5.65058254e-02
      -2.70250216e-02 -3.55017126e-01 3.36210877e-01 3.83530080e-01
      -1.46452546e-01 -4.60020363e-01 -1.02267014e-02 5.20262606e-02
      3.46422568e-02 -4.82937247e-01 3.52303684e-01 2.14538887e-01
      3.10298484e-02 -4.78871137e-01 -2.12005168e-01 -2.41707802e-01
      -2.62619793e-01 1.97563767e-02 5.17756939e-01 3.82056564e-01
      3.35851461e-01 -5.08298874e-01 -2.83053100e-01 -6.17618598e-02
      -6.89774081e-02 3.52383494e-01 3.89689982e-01 5.22616684e-01
      1.37279227e-01 -7.24550009e-01 -2.13546664e-01 2.75951475e-01
      5.52897036e-01 1.23267651e-01 6.96378052e-01 8.98564219e-01
      5.87676287e-01 -7.27294013e-02 2.89143860e-01 -4.52407926e-01
      -9.31176245e-02 1.96229622e-01 4.57306772e-01 1.17248930e-01
      5.66671789e-01 -1.48689887e-02 2.89700851e-02 -1.45335591e+00
      -6.79931641e-01 2.58923858e-01 -3.22627388e-02 1.54710621e-01
      -3.17493826e-02 7.15396285e-01 -1.73864633e-01 6.43393323e-02
      1.08358771e-01 3.66440341e-02 -8.05856735e-02 -1.40250742e-01
      7.44752958e-02 -3.67339909e-01 -4.34281006e-02 -7.30949687e-03
      -7.64362291e-02 2.98171759e-01 -5.66265099e-02 -1.28079817e-01
      -7.46942461e-02 -2.09294986e-02 -5.41179383e-04 -2.10002095e-01
      -7.06542194e-01 1.12508848e-01 3.85393232e-01 -8.23619664e-02
      -2.98654079e-01 -1.40721232e-01 -3.17353040e-01 -2.19462793e-02
      1.39113501e-01 -2.65798777e-01 2.10811302e-01 6.76111341e-01
      6.27340436e-01 -8.63574073e-03 -1.04587860e-01 -7.07526132e-02
      -2.67021984e-01 -5.55497348e-01 -1.75479010e-01 -7.19189942e-02
      6.53262794e-01 4.41914529e-01 -5.84688559e-02 1.02352142e-01
      -1.01427600e-01 -1.32128671e-01 -1.32724330e-01 -8.52376819e-01
      -1.47996768e-01 3.85085225e-01 -2.19325777e-02 -3.69385779e-01
      -2.52672136e-01 -1.78968042e-01 -5.60769677e-01 1.00229308e-01
      -1.18741922e-01 3.86302352e-01 3.25606167e-01 -2.62013376e-01
      -2.94721127e-01 2.06683278e-01 3.20435643e-01 -4.45243806e-01
      1.28164655e-04 1.44947339e-02 -2.27386221e-01 3.75788510e-01
      3.23598057e-01 -4.36777025e-02 2.12704018e-01 3.89284879e-01
      -6.59783464e-03 -4.18008566e-01 -5.39798975e-01 -1.18092991e-01
      3.11649233e-01 2.99651533e-01 1.60859719e-01 2.57851332e-01
      1.44236609e-01 -3.87592353e-02 5.28500564e-02 -2.65318334e-01
      1.29974633e-01 -1.15767755e-01 -5.53617906e-03 3.57364804e-01
      2.42399529e-01 1.90035805e-01 2.78718658e-02 1.34337991e-01
      -1.69036284e-01 3.67523909e-01 1.47186786e-01 2.35054195e-01
      2.20191643e-01 1.78268284e-01 1.53311685e-01 -9.06586647e-03
      -9.90845859e-02 9.40455422e-02 -8.34840313e-02 2.78114676e-01
      -8.24370533e-02 -3.80812973e-01 1.91906780e-01 2.67196000e-01
      2.17794284e-01 -6.52110502e-02 -4.24109459e-01 -2.01925740e-01
      2.16451183e-01 -3.24591309e-01 -1.24438718e-01 2.33769953e-01
      9.87177119e-02 7.86037743e-02 -1.02791570e-01 -3.09870869e-01
      -1.32173672e-01 7.43794739e-01 3.19764286e-01 9.43188965e-02
      6.90394491e-02 1.68981496e-02 -5.70925586e-02 -2.87747830e-01
      -2.27303639e-01 1.60404909e-02 3.84713858e-01 3.98959555e-02
      -5.51777594e-02 1.26153301e-03 -5.78679740e-02 -7.20678791e-02
      -4.13364992e-02 -3.34809422e-01 4.16175975e-03 2.38186538e-01
      -2.42455862e-02 9.13275704e-02 -7.65302330e-02 -3.43754403e-02
      1.24189612e-02 -1.76949903e-01 4.62009087e-02 4.22834270e-02
      1.46882489e-01 -1.12631090e-01 -1.21961221e-01 1.63040116e-01
      -4.33516167e-02 3.28832358e-01 -2.15880349e-01 -1.58295839e-03
      1.00611970e-01 7.46863112e-02 -4.25562598e-02 -1.21849656e-01
      1.16287068e-01 5.28029442e-01 2.27239713e-01 -1.20905772e-01
      -6.39560595e-02 -2.44085193e-01 2.22246610e-02 2.07199842e-01
      2.91855901e-01 -2.48047635e-01 -6.75571486e-02 2.25274071e-01
      2.27274165e-01 1.63798928e-01 1.70233160e-01 1.37068912e-01
      -2.14804918e-01 -5.12704194e-01 -9.04183760e-02 3.48087490e-01
      4.28168118e-01 3.17252666e-01 -9.36351493e-02 -2.86797047e-01
      -2.64942031e-02 -2.68745840e-01 -2.17696056e-01 -3.20731312e-01
      1.86042011e-01 -9.71189514e-02 2.39850774e-01 3.75787786e-04</_>
    <_>
      -3.82061638e-02 2.67417962e-03 7.16033876e-02 7.20276982e-02
      5.06834537e-02 -4.43137763e-03 1.92820933e-03 1.18747465e-02
      -8.27671662e-02 -2.09645033e-02 -4.07688357e-02 1.93502326e-02
      4.83481400e-02 3.57802189e-03 -1.67504903e-02 -7.17910659e-03
      -2.37565022e-03 -2.75700912e-02 -6.81185871e-02 2.26817243e-02
      1.10378424e-02 9.17711016e-03 -2.04830468e-02 5.15296124e-02
      9.48592648e-02 7.50536248e-02 -4.27068360e-02 -7.77068138e-02
      -3.73972282e-02 2.12549567e-02 5.88132218e-02 -5.39575471e-03
      -5.88765787e-03 3.92739885e-02 5.41228279e-02 -3.84290516e-02
      6.20567240e-03 -1.04546230e-02 -1.50165921e-02 1.87669266e-02
      -2.46018972e-02 -1.44618086e-03 -2.26297230e-03 -9.53975543e-02
      -1.28051508e-02 -1.28051508e-02 4.67991643e-02 3.07869986e-02
      -1.55465929e-02 -2.12752093e-02 -2.53734738e-02 -2.66750921e-02
      -5.92491254e-02 -1.08122192e-02 9.32562351e-03 1.19946450e-01
      5.90157956e-02 -1.80639215e-02 -1.15379140e-01 -1.70892954e-01
      -6.78712577e-02 -1.33812372e-02 -1.03208631e-01 1.96460441e-01
      2.26384103e-01 1.45685583e-01 -8.73568505e-02 -1.66776955e-01
      -2.12700501e-01 -8.38967264e-02 -1.21365245e-02 9.19513777e-02
      -3.26640299e-03 -1.96408306e-04 8.78214184e-03 -3.43551077e-02
      -4.59987819e-02 -2.47256104e-02 -2.93825045e-02 1.36976643e-02
      -7.34978355e-04 -5.75863943e-02 -9.60156545e-02 -8.88705775e-02
      -2.73944773e-02 -4.62641045e-02 -2.95439619e-04 3.87995429e-02
      -2.32456485e-03 -1.21923901e-01 1.65468037e-01 1.30245015e-01
      4.42031361e-02 -1.05324514e-01 -1.14423417e-01 -7.46936798e-02
      -1.91026386e-02 7.72347972e-02 1.70325875e-01 1.02985911e-01
      6.21739170e-03 -1.06479608e-01 -1.31715938e-01 -8.46835077e-02
      -6.09103926e-02 8.27859566e-02 7.31273890e-02 2.10985895e-02
      -6.78448472e-03 4.19712905e-03 -2.84907985e-02 -2.55799890e-02
      -1.24920815e-01 -3.61042768e-02 1.06772900e-01 1.01431161e-01
      4.92779464e-02 3.03440429e-02 9.76640210e-02 3.39977071e-02
      -5.56416623e-02 -2.01407328e-01 -1.32704571e-01 1.04090315e-03
      3.07288561e-02 1.09417718e-02 2.26959512e-02 -2.42283605e-02
      -6.23012073e-02 -1.16500273e-01 -1.70981735e-01 -1.15996316e-01
      8.47059786e-02 1.76030234e-01 1.58404127e-01 1.98279843e-01
      2.26297259e-01 -2.34257244e-03 -1.34751990e-01 -3.09129566e-01
      -2.76818097e-01 -1.51045904e-01 5.88235743e-02 2.00177714e-01
      1.88115671e-01 3.03193212e-01 1.89822674e-01 -1.11389883e-01
      -2.81342685e-01 -3.06461304e-01 -2.01187506e-01 -1.13209784e-01
      -2.64148600e-02 1.95273906e-01 2.77492851e-01 1.84745386e-01
      -1.15912899e-01 -1.99087843e-01 -2.91849762e-01 -1.54991522e-01
      -1.20705053e-01 -2.43136398e-02 3.66845220e-01 4.01442051e-01
      2.02311546e-01 -6.54236302e-02 -2.43848071e-01 -3.54092598e-01
      -3.18006188e-01 -2.33626768e-01 8.42445046e-02 2.99205463e-02
      2.62820899e-01 1.81116685e-01 3.44612338e-02 2.43547978e-03
      -1.30471230e-01 -2.01845944e-01 -2.47015253e-01 -1.80828378e-01
      4.05620188e-02 1.07291266e-01 -4.22973372e-02 -8.79757702e-02
      -4.99663001e-05 2.31781229e-03 3.16857882e-02 3.52763832e-02
      4.96488763e-03 8.36038068e-02 -4.69197817e-02 -1.80425018e-01
      -1.19222209e-01 -3.73113751e-02 -3.70221026e-02 6.34559616e-02
      5.64061962e-02 7.04685524e-02 -1.46192551e-01 -1.03409871e-01
      -7.11954683e-02 6.48903325e-02 1.78809375e-01 1.01396747e-01
      8.07224959e-02 -7.10510910e-02 -1.42452553e-01 -1.89598836e-02
      -9.94967446e-02 -1.66529477e-01 2.11407803e-02 9.01117548e-02
      6.20128587e-02 1.32284820e-01 1.11264095e-01 6.63135573e-02
      -1.57152454e-03 4.54763940e-04 3.40097845e-02 4.45614234e-02
      3.68677825e-02 1.95157174e-02 2.84558404e-02 9.08497795e-02
      1.27997577e-01 2.19591320e-01 9.58652049e-02 6.43693190e-03
      1.60366390e-02 -1.06155835e-02 -4.46154922e-02 -1.73693914e-02
      4.31509539e-02 2.05129981e-01 -1.49328053e-01 -6.94469959e-02
      -1.42586768e-01 -6.54748874e-03 6.12320304e-02 8.66701230e-02
      2.98664011e-02 6.85804849e-03 -1.59142345e-01 -3.91078740e-02
      2.31656041e-02 -6.80366606e-02 -3.00538633e-02 6.55825287e-02
      3.81881706e-02 7.80979320e-02 -1.80099662e-02 -6.19233213e-02
      1.82348073e-01 2.12897062e-01 3.70538794e-02 1.45966383e-02
      -1.07969530e-02 -5.94222695e-02 -8.40109885e-02 -1.13053858e-01
      3.33340615e-02 -6.17371406e-03 1.19622305e-01 4.73272167e-02
      4.39734012e-02 4.19871248e-02 1.68683212e-02 -1.39318528e-02
      -1.01128936e-01 -1.15491077e-01 -1.31327668e-02 1.05764763e-02
      4.53013787e-03 8.36968794e-03 1.63678061e-02 -1.73107127e-03
      2.48806737e-02 -1.60639018e-01 5.76779507e-02 -9.31571145e-03
      1.08994367e-02 2.08574962e-02 7.49750482e-03 3.41532864e-02
      2.78711673e-02 2.67235208e-02 -1.33069053e-01 -1.31327668e-02
      -1.32905483e-01 -1.16303347e-01 -1.08089969e-02 1.04544394e-01
      1.42910838e-01 1.01477288e-01 1.05697706e-01 3.71718109e-02
      -6.32413775e-02 4.18875888e-02 -1.21060088e-01 -1.12956353e-01
      8.19888189e-02 5.49626760e-02 4.03652154e-02 1.19328216e-01
      9.23198313e-02 1.69947386e-01 -1.02488942e-01 -6.57558534e-03
      -1.22821247e-02 2.31607705e-02 5.63785024e-02 8.44013765e-02
      6.75682798e-02 1.94571950e-02 -2.06051376e-02 -1.10191338e-01
      -2.24615559e-02 1.49999959e-02 2.37647835e-02 2.12299842e-02
      2.60863900e-02 5.76550812e-02 -2.78558154e-02 -5.28766215e-02</_>
    <_>
      2.26139471e-01 1.10590965e-01 2.03849357e-02 1.00265620e-02
      1.12384498e-01 5.61576076e-02 -3.98621075e-02 -8.09768364e-02
      2.36894757e-01 1.42491162e-01 1.21337734e-01 6.88960403e-03
      2.63399929e-02 9.26793739e-02 6.98888600e-02 -2.21201107e-02
      -9.63753238e-02 -4.05543037e-02 -1.81230143e-01 -3.87110859e-01
      -2.92925369e-02 3.71955968e-02 7.63784498e-02 8.29423741e-02
      5.18427156e-02 3.19692433e-01 -5.68739846e-02 -1.25651181e-01
      1.27247497e-01 3.62025127e-02 7.03646317e-02 8.10552612e-02
      9.91201997e-02 -2.44801894e-01 -8.62694234e-02 -5.23456410e-02
      9.10719782e-02 4.79830466e-02 1.62415802e-02 1.88069046e-02
      4.15233225e-02 1.69232860e-02 -7.34638248e-04 9.18079540e-02
      9.14767385e-02 9.14767385e-02 1.77590787e-01 5.68000264e-02
      3.10695432e-02 4.31436375e-02 4.56375768e-03 3.20630595e-02
      1.50045315e-02 8.59699249e-02 -9.92468596e-02 -6.34979876e-03
      1.51722863e-01 6.39461577e-02 1.80956386e-02 2.94908155e-02
      -2.55094826e-01 -2.17576727e-01 -3.87171924e-01 9.14767385e-02
      -9.05916467e-02 9.36473068e-03 3.03041674e-02 -7.17269257e-03
      1.16244359e-02 9.57836770e-03 -2.40064366e-03 -2.37086907e-01
      -2.16725878e-02 1.40509889e-01 3.88324186e-02 5.73737659e-02
      7.34613985e-02 2.57762689e-02 4.60962206e-02 2.67436206e-02
      -7.44026378e-02 -1.03243507e-01 -1.19467407e-01 -4.76211049e-02
      4.82964888e-02 6.68210611e-02 3.97748835e-02 1.86886378e-02
      2.79844813e-02 -2.40817457e-03 3.81064340e-02 6.84415400e-02
      -7.87025541e-02 6.64937776e-03 2.45637372e-02 3.83476764e-02
      3.89719084e-02 4.74673808e-02 -1.86140522e-01 1.22600636e-02
      9.58272070e-02 -5.79032674e-02 5.05320728e-02 2.24426240e-01
      1.02240637e-01 -1.86572015e-01 -1.29463971e-01 1.55150201e-02
      -1.53505802e-01 -3.44925225e-01 -1.22516595e-01 6.40330762e-02
      1.10259660e-01 1.22033939e-01 1.04995705e-01 2.38818765e-01
      1.38189504e-02 1.59331579e-02 9.86165404e-02 4.14059777e-03
      4.78822179e-02 7.18334690e-02 8.18393528e-02 -2.16550246e-01
      -3.50741483e-02 -9.93757620e-02 -5.91975264e-02 -9.49146599e-02
      -1.07094459e-01 5.88765293e-02 9.50416327e-02 1.30466819e-01
      -6.18400760e-02 2.08827242e-01 1.57826152e-02 1.93779692e-02
      -8.70966464e-02 -1.51770025e-01 2.63066571e-02 2.22015698e-02
      4.45119515e-02 -9.73392054e-02 1.21536762e-01 1.93779692e-02
      1.58010021e-01 2.03631625e-01 2.06505150e-01 2.93616839e-02
      -1.03766225e-01 -1.23889251e-02 -3.99896592e-01 -3.15067768e-01
      -4.37574089e-01 1.67641655e-01 8.47698301e-02 8.12724605e-02
      -2.17198208e-02 -1.21398531e-01 -7.81498924e-02 -2.45679602e-01
      -1.72951162e-01 -2.67287254e-01 1.67780563e-01 5.64568192e-02
      -2.05128863e-02 -7.31537538e-03 -1.29339904e-01 -1.89834554e-02
      -3.09864789e-01 -2.37362415e-01 -3.01402938e-02 1.54133499e-01
      4.24886554e-01 7.49928430e-02 -2.42967810e-02 -1.25785306e-01
      -6.00642003e-02 -5.38829863e-01 -4.58152503e-01 -7.11029693e-02
      -1.07020577e-02 1.01043500e-01 -3.52286100e-02 1.83007575e-03
      2.35033482e-02 1.55041618e-02 -6.06702790e-02 -2.02646200e-02
      -2.36469552e-01 -1.74144149e-01 4.73825121e-03 -1.33724902e-02
      1.41914666e-01 4.31902707e-01 2.29653060e-01 -1.02800481e-01
      -7.22856745e-02 -1.25586271e-01 -7.22632185e-02 2.13695735e-01
      1.57445725e-02 2.21706592e-02 2.41634995e-02 4.90797833e-02
      -1.40695572e-01 -1.39531106e-01 -2.50022948e-01 -1.57326475e-01
      -1.25331134e-01 5.71049117e-02 2.67361373e-01 3.86666566e-01
      2.48422176e-01 6.77976385e-02 1.28083333e-01 -2.04590946e-01
      -1.31946295e-01 -5.05743325e-02 -7.01791123e-02 -3.22617497e-03
      2.88637858e-02 3.78739871e-02 -1.36099130e-01 2.62239985e-02
      -2.57559749e-03 4.50800397e-02 -3.84273201e-01 -1.79549932e-01
      -4.50207526e-03 -1.95020356e-03 -2.37186416e-03 -1.45613039e-02
      3.83467637e-02 2.19478570e-02 -1.06647409e-01 -1.15242250e-01
      4.59269099e-02 1.03050373e-01 1.24940097e-01 6.50191307e-02
      7.27504715e-02 6.43504485e-02 1.19905487e-01 4.50800397e-02
      -6.43692613e-02 6.05551824e-02 4.92365919e-02 8.77713934e-02
      4.66078855e-02 5.04547469e-02 -4.89935279e-02 3.07650585e-02
      -2.14923825e-02 -1.38067260e-01 -1.53131634e-01 -3.90503183e-03
      -3.25946063e-02 -1.55444257e-02 -1.46551222e-01 -1.75338835e-01
      -2.34766267e-02 -1.32773533e-01 2.95898765e-01 -4.71181469e-03
      3.34030297e-03 -1.81266479e-02 -5.01657277e-03 -3.67838681e-01
      -4.14363384e-01 -1.03997312e-01 6.50638640e-02 -6.49422333e-02
      3.00271511e-02 1.62755195e-02 2.28059515e-02 1.50360633e-02
      3.62013988e-02 1.02448061e-01 6.50638640e-02 -7.47165605e-02
      2.72038076e-02 2.01186296e-02 1.82543881e-02 4.43977155e-02
      2.15321425e-02 1.36432022e-01 2.22997978e-01 6.50638640e-02
      -2.43435621e-01 1.80237591e-01 3.13386880e-02 3.11757717e-02
      4.01625112e-02 3.35196666e-02 -7.41431266e-02 -1.63572982e-01
      -6.04472384e-02 -2.89766818e-01 -7.62174278e-03 7.15681091e-02
      1.57045692e-01 1.51827142e-01 1.13202251e-01 5.13132885e-02
      9.15152282e-02 -6.71525523e-02 -1.00158311e-01 1.81713715e-01
      7.65451044e-02 4.45652194e-02 1.39639720e-01 8.73619094e-02
      3.13993931e-01 2.86321849e-01 -3.28752510e-02 -8.32091272e-02
      2.05714121e-01 1.45548269e-01 8.35141316e-02 1.71204388e-01
      1.50021598e-01 1.76317528e-01 -3.25644463e-02 -7.61487037e-02</_>
    <_>
      3.93816739e-01 2.37033844e-01 1.02468766e-01 -9.29045081e-02
      -9.18419361e-02 -2.58873142e-02 -4.78810295e-02 -1.52248129e-01
      1.93583861e-01 2.56360829e-01 -2.63657887e-03 -9.17600319e-02
      -1.11420944e-01 -1.42145574e-01 -1.17503762e-01 -6.12975471e-02
      -4.19043601e-02 8.00026581e-02 -3.58038358e-02 -1.38354272e-01
      4.53636609e-02 4.44513738e-01 1.29423484e-01 -1.21076023e-02
      -2.15604715e-02 -4.38197004e-03 -1.59595050e-02 -1.95041224e-01
      2.23950297e-02 -1.08024403e-01 1.92486987e-01 2.37094373e-01
      1.01721816e-01 -8.97220429e-03 -5.03975525e-02 -1.31058050e-02
      3.39745939e-01 -1.03339434e-01 -2.11974591e-01 -1.22570895e-01
      -5.91091625e-02 -6.86462745e-02 -1.22809649e-01 -3.29157114e-02
      2.26078346e-01 3.10195029e-01 -6.81463704e-02 -8.59562457e-02
      -1.90829650e-01 -2.66067237e-01 -2.82895207e-01 -1.41374871e-01
      1.29046842e-01 3.13826144e-01 4.89750644e-03 -2.44601473e-01
      -2.97671169e-01 -5.96302673e-02 2.31454149e-01 1.91186011e-01
      1.55947194e-01 2.39336401e-01 5.30051291e-01 -3.02568018e-01
      -5.65203488e-01 -2.56876320e-01 -7.21272677e-02 8.82853288e-03
      -2.54184920e-02 1.07399486e-01 2.15021580e-01 2.52746403e-01
      3.60032260e-01 8.92848969e-02 -2.02765875e-02 -2.09604710e-01
      -3.61823231e-01 -3.83328646e-01 -1.58572972e-01 1.41980618e-01
      4.21920657e-01 2.20242798e-01 -4.67149280e-02 8.08773488e-02
      -6.47625849e-02 -8.16199258e-02 7.83516988e-02 2.91109115e-01
      3.60623717e-01 3.04343283e-01 -6.35930300e-02 -9.01262537e-02
      1.96456864e-01 -5.55881932e-02 -1.83755949e-01 -2.06817701e-01
      -1.32519513e-01 -9.01750103e-02 -6.20174743e-02 6.63396046e-02
      -8.45647976e-02 -9.72088277e-02 -5.17989211e-02 -1.19638875e-01
      2.78642505e-01 2.68800199e-01 2.42584810e-01 1.40938953e-01
      -2.17742175e-01 -3.21572483e-01 -1.87766150e-01 3.13455164e-01
      2.76179582e-01 3.13097984e-01 1.94636658e-01 2.93442428e-01
      1.92532107e-01 1.74494088e-02 1.01622902e-01 -3.66410762e-02
      1.64798647e-01 3.79275829e-01 2.02813908e-01 -1.21434620e-02
      -7.79548511e-02 -7.25744367e-02 3.14793061e-03 -1.23595893e-01
      -5.26803732e-01 -3.72641057e-01 -9.23293829e-02 2.07873940e-01
      3.65558565e-01 1.81386396e-01 -1.10856250e-01 -6.44694567e-02
      2.88564205e-01 4.04555470e-01 4.55843695e-02 1.11819878e-01
      -7.04068597e-03 -1.11599743e-01 -1.94899291e-01 -1.71625286e-01
      -2.25110158e-01 -2.78103650e-01 -3.93442184e-01 7.70915374e-02
      4.45221096e-01 4.75364208e-01 4.53395098e-01 2.57115990e-01
      1.26943905e-02 -2.76965618e-01 -5.13964951e-01 -5.40993690e-01
      -1.96565002e-01 1.91680625e-01 3.68077964e-01 4.24534917e-01
      3.92985940e-01 1.33101009e-02 -2.47803867e-01 -4.88471352e-02
      1.66731343e-01 7.23313466e-02 4.00058925e-01 5.87301970e-01
      4.42505568e-01 1.32372022e-01 -2.34522238e-01 -7.19215497e-02
      -2.98275113e-01 -3.20407033e-01 -2.98528701e-01 6.93335459e-02
      2.90432334e-01 4.72209603e-01 3.78742933e-01 7.13257194e-02
      -1.28305927e-01 6.29481599e-02 1.95092142e-01 -1.54389758e-02
      -8.16169828e-02 -1.15031280e-01 -1.04819529e-01 -6.26769066e-02
      -2.65695125e-01 -1.69197872e-01 -3.92204598e-02 -1.29589364e-02
      1.83724672e-01 6.36888891e-02 2.15283036e-01 -1.28343835e-01
      -8.45464095e-02 -3.17707837e-01 3.55633318e-01 4.58220810e-01
      2.86075473e-01 -2.36731060e-02 -1.04239158e-01 -2.36147761e-01
      -9.99881327e-02 -6.03097640e-02 5.65748587e-02 -1.94166839e-01
      2.16761649e-01 4.77024555e-01 2.62256622e-01 5.81117980e-02
      -1.11775875e-01 -2.82769471e-01 -2.40795016e-01 -4.18253303e-01
      -2.26872176e-01 -1.08162537e-01 -1.94451392e-01 -1.92142844e-01
      -1.22415088e-01 7.19300658e-02 1.98822200e-01 -3.64106297e-02
      -2.71417648e-01 -2.37915948e-01 2.41073862e-01 1.06865413e-01
      7.48006976e-04 3.11373174e-03 -2.60591879e-02 -5.84851503e-02
      -1.70019552e-01 -2.95822561e-01 4.20627780e-02 4.32265829e-03
      1.85950249e-01 -9.44984555e-02 4.31659771e-03 -2.97687724e-02
      5.62889688e-02 -1.21291898e-01 1.03208706e-01 1.76704839e-01
      -1.23618640e-01 1.06245950e-01 -1.49870321e-01 -5.96101657e-02
      -8.90974179e-02 -7.11554810e-02 -1.66494414e-01 2.23587751e-01
      -3.51044863e-01 -6.82808906e-02 2.79356353e-03 -4.15888093e-02
      1.28915301e-02 1.70795824e-02 -3.90499756e-02 -1.69010460e-02
      -1.05034396e-01 -1.43122245e-02 -8.26163962e-02 -1.60368651e-01
      -2.10358366e-01 -9.28310081e-02 -8.11770558e-02 -4.45771180e-02
      1.86393969e-02 2.02787578e-01 1.99634925e-01 7.12194443e-02
      -4.57124077e-02 -7.88964704e-02 -9.60311592e-02 -9.93582904e-02
      -1.18289761e-01 -7.09463209e-02 1.99634925e-01 8.90752822e-02
      -6.19657896e-02 -1.06263235e-01 -1.07625023e-01 -1.01902038e-01
      -2.68784285e-01 -1.60535365e-01 -1.96897723e-02 1.99634925e-01
      2.06373975e-01 1.93488106e-01 -1.40569014e-02 -1.64426237e-01
      -2.35057935e-01 -2.96659499e-01 -1.53370500e-01 -9.15470496e-02
      1.26021788e-01 -1.25768691e-01 1.90932393e-01 3.74708474e-01
      1.10997260e-01 -1.11547150e-01 -5.70939422e-01 -1.90665737e-01
      -1.24267124e-01 -2.38655776e-01 1.49141431e-01 6.39249086e-02
      7.61668198e-03 -4.20673341e-02 9.89478827e-03 -6.31775036e-02
      1.52013183e-01 1.27333045e-01 1.57936588e-01 4.06137444e-02
      1.79649085e-01 8.29490200e-02 -1.12140670e-01 -1.00278780e-01
      -1.75217003e-01 -1.89457089e-02 -4.05646265e-02 -5.89388274e-02</_>
    <_>
      -1.89461201e-01 -6.33020252e-02 1.10566810e-01 7.75208250e-02
      1.06708400e-01 7.60150552e-02 2.17934191e-01 4.12959456e-01
      2.26291433e-01 5.22887371e-02 -2.03968938e-02 1.56908721e-01
      2.40604151e-02 -5.52394018e-02 -1.45353913e-01 6.27761185e-02
      1.95903018e-01 1.08045794e-01 -8.02954435e-01 -1.81977302e-01
      1.95816472e-01 1.24943942e-01 1.98382642e-02 2.60607719e-01
      1.20311521e-01 -2.29648892e-02 -5.80025554e-01 -5.49135864e-01
      -1.34280816e-01 3.49614412e-01 6.50675356e-01 2.49497741e-01
      2.04390690e-01 1.23590320e-01 -2.38841429e-01 -4.34368879e-01
      2.32213616e-01 -1.67499483e-01 -3.48467473e-03 -8.76129270e-02
      -1.51402533e-01 -7.58883953e-02 -5.28984703e-02 -3.01110864e-01
      2.57818460e-01 2.57818460e-01 1.09399244e-01 -1.68242585e-02
      -1.92695856e-02 -3.32714468e-02 -5.70300259e-02 -1.40147023e-02
      -1.70172840e-01 2.59651423e-01 -2.25094125e-01 -1.42587125e-01
      -3.12217847e-02 -1.78528920e-01 -1.77298918e-01 -5.27796857e-02
      9.05535221e-02 -5.73574342e-02 -2.37405792e-01 -7.11242436e-03
      -9.49192271e-02 -1.67664886e-01 -4.66046214e-01 -2.95964271e-01
      -1.71804205e-01 -6.74501015e-03 -6.17098808e-03 1.19282290e-01
      5.12010530e-02 -3.56745743e-03 7.10868789e-03 1.28129318e-01
      1.27908047e-02 -9.86589491e-03 -1.39452619e-02 2.07181424e-02
      1.20495908e-01 -1.18771538e-01 -1.42020896e-01 1.05466312e-02
      -2.02959239e-01 -1.45223066e-01 -4.48091440e-02 -4.74684685e-02
      6.87655583e-02 1.27638698e-01 -1.52090520e-01 -9.26304534e-02
      -1.12842821e-01 -3.10099218e-02 -1.57710426e-02 -2.20382065e-02
      -7.22879171e-02 1.26983551e-02 1.22321963e-01 -7.98945352e-02
      -5.80080599e-02 -2.20451385e-01 -1.16361730e-01 -1.15434788e-01
      -1.13465875e-01 1.25764877e-01 2.37566859e-01 1.98651820e-01
      -3.89374882e-01 -3.00071910e-02 -1.64086804e-01 -4.07500952e-01
      -3.55143368e-01 5.95613644e-02 3.42271656e-01 3.55245739e-01
      -1.15816854e-01 -1.93166688e-01 3.68049085e-01 6.58843398e-01
      3.95214826e-01 -1.90419570e-01 -1.58429399e-01 -2.41249353e-02
      -2.91965097e-01 -4.92065996e-01 -6.90362826e-02 2.16716424e-01
      -4.90085661e-01 -1.20575166e+00 -7.73208797e-01 -5.99087738e-02
      5.04131019e-01 7.00119078e-01 3.23088378e-01 6.51715815e-01
      1.07076526e+00 6.53765738e-01 -1.56566948e-01 -7.96452105e-01
      -7.88744032e-01 -1.97723106e-01 -9.17703137e-02 2.74705738e-01
      -8.56460854e-02 1.93828031e-01 2.87157983e-01 8.60096812e-02
      -8.09470490e-02 -1.35276794e-01 -1.77331433e-01 -6.37511835e-02
      -1.49561614e-01 -1.28252536e-01 -5.51758427e-03 -1.17618240e-01
      -2.94997573e-01 -7.13046864e-02 -1.55681431e-01 -1.50346175e-01
      4.94946018e-02 3.31832059e-02 5.33076823e-01 8.27556252e-01
      6.44784570e-01 2.45742366e-01 -3.24084789e-01 -3.31215411e-01
      -8.38228390e-02 -1.50012627e-01 1.65952481e-02 -5.37411869e-02
      8.39425474e-02 -7.91105628e-02 4.85519692e-02 8.87237266e-02
      -2.99246348e-02 5.66543639e-02 -4.41266829e-03 -1.42564610e-01
      -3.56968969e-01 -4.43422981e-02 -8.08826908e-02 2.70827413e-02
      1.84553012e-01 3.07741284e-01 1.14962012e-01 7.26703852e-02
      -4.90446873e-02 -1.64764211e-01 -1.39257655e-01 -2.48089939e-01
      -1.47200897e-01 6.28538206e-02 1.88453812e-02 1.78478301e-01
      1.37027338e-01 -4.73836064e-02 -9.66677815e-02 7.81961679e-02
      -4.57354225e-02 1.32544443e-01 8.48139822e-02 1.52026743e-01
      2.58879930e-01 -1.11124245e-02 -8.90764892e-02 -2.10986242e-01
      -2.33546585e-01 -6.64479434e-02 8.28139111e-02 1.32129684e-01
      -9.35422629e-03 1.12543114e-01 -7.19847679e-02 -6.93957806e-02
      -1.59894541e-01 -1.35396346e-01 -1.70643449e-01 -2.60283262e-01
      -1.59168959e-01 1.94797009e-01 3.12082559e-01 2.04959750e-01
      8.10390413e-02 3.82220536e-01 5.98538101e-01 2.76898146e-01
      -1.41094932e-02 -1.62866533e-01 -2.65243351e-01 -8.14189836e-02
      -1.28876925e-01 7.07479492e-02 -1.00877583e-01 1.30333975e-02
      -2.82292366e-01 -8.62028822e-02 3.97473462e-02 6.93323165e-02
      3.89710627e-02 -1.24274641e-01 -1.45871122e-03 4.05629873e-02
      -5.11321366e-01 -1.05874248e-01 -1.82650030e-01 -2.08619237e-01
      -7.87984952e-02 4.77293171e-02 -3.14745367e-01 -1.18857380e-02
      2.66206712e-01 3.07867974e-01 1.79518938e-01 5.63801229e-02
      -1.24750435e-01 -2.59190530e-01 -4.85749952e-02 -1.49264574e-01
      -4.20489386e-02 6.84875995e-02 -7.87756965e-03 -1.95391364e-02
      2.54890621e-02 -4.63887900e-02 -7.83464964e-03 1.74556613e-01
      3.00581697e-02 4.55125310e-02 1.56559553e-02 -1.43645391e-01
      -2.90145483e-02 3.79767356e-04 -8.29607323e-02 -9.02105197e-02
      -6.34869263e-02 -3.92101407e-01 6.81025982e-02 1.35968417e-01
      -4.85882871e-02 -4.85930070e-02 4.78642154e-03 -9.46464762e-02
      -3.53517476e-03 -9.51102152e-02 1.11992499e-02 1.56559553e-02
      -4.92506474e-02 -3.87017764e-02 -4.82446365e-02 4.34278026e-02
      -3.81369591e-02 8.93384125e-03 6.62546009e-02 -1.20191984e-01
      1.56864747e-01 4.17745896e-02 -2.95409322e-01 -8.20545629e-02
      1.30033478e-01 -5.50763011e-02 -4.15102877e-02 -8.46486539e-02
      -2.63120741e-01 1.07954137e-01 5.72248036e-03 1.84070662e-01
      -3.83956879e-02 6.86376095e-02 -5.06893508e-02 -4.47459556e-02
      1.23298913e-02 8.69364012e-03 4.03008908e-02 3.05658393e-02
      2.68909991e-01 -4.67785448e-02 -2.00918749e-01 -1.79140747e-01
      -1.55043766e-01 -5.54665886e-02 -2.62862325e-01 1.29430816e-02</_>
    <_>
      7.70287588e-02 5.38997762e-02 4.01014611e-02 3.30032967e-02
      6.76344708e-02 2.46247239e-02 4.06440459e-02 3.16212629e-03
      2.34847479e-02 2.71410327e-02 1.04605861e-01 8.28283355e-02
      4.45691869e-02 8.34325701e-02 2.63115428e-02 3.87975685e-02
      -3.59165557e-02 -2.67868321e-02 -9.85378250e-02 -1.54011235e-01
      1.18365856e-02 1.53231636e-01 9.60073099e-02 1.02365546e-01
      7.42412433e-02 4.66916151e-02 -6.97339997e-02 -9.00422856e-02
      1.09296460e-02 3.31365131e-02 1.49222240e-01 4.13257629e-02
      5.96689843e-02 -1.69410594e-02 -1.20669432e-01 -1.13559254e-01
      2.48675961e-02 7.13943094e-02 5.65199181e-02 3.34826931e-02
      6.07620627e-02 1.87943820e-02 8.06517899e-03 1.44380853e-02
      2.49716341e-02 2.49716341e-02 3.35446186e-02 4.11431938e-02
      3.47117111e-02 6.50031641e-02 2.44602580e-02 1.73893161e-02
      7.46142194e-02 3.50138508e-02 -4.82254438e-02 -2.84287520e-02
      -6.79153064e-03 8.15048292e-02 4.80340533e-02 6.32651895e-02
      -2.02648900e-02 -9.78783816e-02 -5.85598797e-02 -7.00843260e-02
      -1.66617334e-01 -1.35602593e-01 4.18532118e-02 6.16633706e-02
      1.03459410e-01 7.94333443e-02 4.88356687e-02 -3.16366516e-02
      -3.72025445e-02 4.52690236e-02 4.31819819e-02 3.66500095e-02
      6.95794597e-02 3.25680412e-02 3.51625830e-02 6.64777309e-02
      4.37623598e-02 3.83797176e-02 6.78671822e-02 4.31620963e-02
      4.30738032e-02 7.63839856e-02 3.93216610e-02 3.57279368e-02
      4.65387776e-02 8.28586146e-02 -1.97501898e-01 -1.06778294e-01
      -1.01800477e-02 6.21500835e-02 8.33492801e-02 1.02609031e-01
      8.23279768e-02 2.39326786e-02 -1.63701162e-01 -1.31005064e-01
      4.42367904e-02 8.47413465e-02 1.35116920e-01 1.82177991e-01
      1.68813035e-01 9.59288608e-03 -8.78718346e-02 -1.09595686e-01
      -7.77249187e-02 -9.52061042e-02 -4.70280237e-02 1.36926502e-01
      8.44332203e-02 1.03830062e-01 8.08904916e-02 7.34303519e-02
      -8.64410251e-02 -7.45446384e-02 2.60596592e-02 5.79660498e-02
      1.86696395e-01 4.76691127e-02 6.54197708e-02 -3.54699865e-02
      -7.68197477e-02 -1.54100820e-01 -5.35442568e-02 4.28226441e-02
      -1.02609910e-01 2.60331389e-02 1.20779406e-02 8.07601884e-02
      5.69567196e-02 4.42031063e-02 -1.90545488e-02 -1.90545488e-02
      3.46384309e-02 2.85851434e-02 1.14660144e-01 1.62801240e-02
      6.60112053e-02 -4.64810582e-04 4.81783822e-02 -4.90608811e-02
      -5.92588037e-02 -4.94218767e-02 -6.43249182e-03 1.57895252e-01
      6.40462860e-02 1.54312655e-01 -1.03511559e-02 -5.73302545e-02
      -7.60979578e-02 -9.59367305e-02 -1.65202066e-01 -1.32912502e-01
      6.06862307e-02 7.59551600e-02 1.86283246e-01 1.07883722e-01
      8.25488269e-02 -3.05338074e-02 -8.11121687e-02 -4.97532114e-02
      -3.46831456e-02 1.24543115e-01 2.16293763e-02 1.54486775e-01
      2.60693822e-02 7.14107826e-02 -7.31832311e-02 -8.72161910e-02
      -5.79276271e-02 -6.81860298e-02 4.72935103e-02 1.90452654e-02
      1.68320224e-01 2.99549568e-03 -3.25498055e-03 -2.07194537e-02
      -1.68166712e-01 -3.11504453e-02 9.27831605e-03 6.35415912e-02
      9.07892063e-02 1.36701480e-01 6.26552179e-02 4.90085110e-02
      -1.43975228e-01 -1.65878072e-01 9.91486982e-02 1.37101784e-01
      2.23330051e-01 1.73417732e-01 1.53929874e-01 -2.60212310e-02
      -1.04701377e-01 -1.93173960e-01 -8.46638754e-02 1.05004944e-01
      4.16120701e-02 4.51809354e-02 4.09443267e-02 9.73268896e-02
      3.75483818e-02 2.81497799e-02 -5.31793088e-02 -6.83359951e-02
      8.20195004e-02 1.02873482e-01 1.94495589e-01 8.59726295e-02
      4.74271327e-02 -3.43978293e-02 -3.54858711e-02 -1.53368920e-01
      -1.25975043e-01 -3.53826806e-02 -5.74433655e-02 -1.32555244e-02
      -1.57391001e-02 1.65159125e-02 -1.17925424e-02 -6.49720803e-02
      -1.37745202e-01 -1.02205329e-01 -1.00944288e-01 -8.89108926e-02
      8.71864334e-03 -9.23142582e-03 8.39314982e-03 -5.90539165e-03
      -6.08966406e-03 -1.68826073e-01 5.83442263e-02 5.46283983e-02
      3.22788209e-02 4.68931906e-02 4.10485938e-02 1.91317108e-02
      2.54247654e-02 5.27544729e-02 1.29724950e-01 6.25730455e-02
      4.23565730e-02 3.75340902e-03 9.93888453e-03 1.48126539e-02
      3.73282074e-03 4.31834487e-03 8.10044538e-03 6.34309575e-02
      -1.68758437e-01 -1.25678480e-01 -1.00773007e-01 1.20407855e-02
      -1.54517805e-02 2.59341076e-02 -4.71194647e-02 1.87032782e-02
      -1.76833168e-01 -2.02273995e-01 -3.99886556e-02 -3.03406268e-02
      1.89044353e-04 -1.68134272e-02 3.09950374e-02 -8.09319392e-02
      -1.30028114e-01 -6.42543286e-02 9.15000960e-02 1.36741707e-02
      6.54047122e-03 8.94997269e-03 2.23776586e-02 5.96368546e-03
      1.31401625e-02 9.99337658e-02 9.15000960e-02 5.12052402e-02
      1.27686905e-02 9.19799227e-03 1.32295396e-02 4.12203185e-02
      3.12236696e-02 6.93267509e-02 1.81048587e-01 9.15000960e-02
      -6.86696544e-02 4.09337953e-02 2.33063451e-03 7.53289508e-03
      2.05931976e-03 1.47008421e-02 -1.18126627e-02 -6.38730451e-02
      -5.78410141e-02 -9.27617103e-02 9.48625524e-03 -6.54052524e-03
      3.63542251e-02 1.51269604e-03 3.03053181e-03 -2.32922309e-03
      -3.72863933e-02 -1.91473752e-01 9.00304876e-03 5.74684218e-02
      2.21494660e-02 3.92312743e-02 1.14802152e-01 1.03516139e-01
      1.53726816e-01 1.67394072e-01 -1.18148774e-02 -6.29730374e-02
      1.16984241e-01 3.76795940e-02 4.03301008e-02 1.03783868e-01
      9.56627727e-02 1.04615778e-01 -5.50482832e-02 -1.15759633e-01</_>
    <_>
      -2.24027425e-01 -9.55277011e-02 -3.54709700e-02 4.60319221e-02
      9.64810029e-02 1.28884539e-01 1.38225868e-01 9.75204259e-02
